%YAML:1.0
---
opencv_ml_svm:
   format: 3
   svmType: C_SVC
   kernel:
      type: RBF
      gamma: 5.0000000000000000e-01
   C: 5.
   term_criteria: { epsilon:1.1920928955078125e-07, iterations:1000 }
   var_count: 64
   class_count: 34
   class_labels: !!opencv-matrix
      rows: 34
      cols: 1
      dt: i
      data: [ 48, 49, 50, 51, 52, 53, 54, 55, 56, 57, 65, 66, 67, 68, 69,
          70, 71, 72, 74, 75, 76, 77, 78, 80, 81, 82, 83, 84, 85, 86, 87,
          88, 89, 90 ]
   sv_total: 3169
   support_vectors:
      - [ 2.47868136e-01, 1.74924195e-01, 8.77829865e-02, 7.53185665e-03,
          1.33617884e-02, 6.32772595e-03, 3.11627239e-03, 1.91139758e-01,
          1.79320857e-01, 1.00216761e-01, 1.63367420e-01, 6.59011398e-03,
          4.02539223e-02, 9.59833805e-03, 1.33480564e-01, 1.46012813e-01,
          2.25602284e-01, 1.16860993e-01, 9.10890475e-03, 4.41113785e-02,
          1.15500569e-01, 1.09166838e-01, 7.27447420e-02, 2.51176149e-01,
          1.52507752e-01, 7.63327768e-03, 0., 0., 3.39601450e-02,
          4.49705310e-02, 1.32732227e-01, 2.17527196e-01, 1.62524119e-01,
          0., 0., 0., 0., 7.76477307e-02, 1.89245656e-01, 2.35829234e-01,
          1.99363992e-01, 8.81414954e-03, 0., 3.94814387e-02,
          1.09844230e-01, 8.51394758e-02, 1.12759851e-01, 2.23812282e-01,
          2.53725618e-01, 7.13805482e-02, 1.12840414e-01, 1.15122721e-01,
          1.22910580e-02, 0., 8.24488234e-03, 1.79066181e-01,
          3.11823159e-01, 4.93560247e-02, 3.62157598e-02, 0., 0., 0., 0.,
          1.60959259e-01 ]
      - [ 3.24462563e-01, 1.57621101e-01, 0., 0., 7.43770925e-03,
          5.56098484e-03, 5.41641982e-03, 1.43998757e-01, 2.62059897e-01,
          8.48036781e-02, 7.99726695e-02, 1.18492804e-01, 1.55790756e-02,
          2.81520467e-02, 1.38045521e-02, 1.04333222e-01, 2.74867177e-01,
          1.18606668e-02, 0., 3.69937494e-02, 1.03000969e-01,
          9.57538038e-02, 8.71887803e-02, 1.61543727e-01, 2.50787139e-01,
          0., 0., 0., 3.71885463e-03, 0., 1.60128772e-01, 2.01445282e-01,
          2.07425326e-01, 1.04782820e-01, 4.39472571e-02, 0., 0.,
          6.51665479e-02, 1.61545947e-01, 1.55819029e-01, 2.58427113e-01,
          7.76287029e-03, 0., 3.73258442e-02, 1.28479153e-01,
          8.18271115e-02, 1.41942993e-01, 8.89840499e-02, 2.51970679e-01,
          1.19852506e-01, 7.83200040e-02, 1.18033871e-01, 5.25925448e-03,
          2.82458737e-02, 6.55083135e-02, 1.47896469e-01, 2.78632075e-01,
          1.52526647e-01, 1.03453465e-01, 0., 0., 0., 8.59189183e-02,
          8.35819244e-02 ]
      - [ 2.85626203e-01, 1.08741328e-01, 6.33897306e-03, 6.60182768e-03,
          9.82229970e-03, 0., 0., 1.90538362e-01, 2.31132954e-01,
          1.08053781e-01, 9.95927751e-02, 8.39402303e-02, 1.14913946e-02,
          1.26895374e-02, 8.25953670e-03, 1.79896131e-01, 2.63771683e-01,
          9.44949035e-03, 6.33897306e-03, 0., 9.73510444e-02,
          8.35508704e-02, 9.06125009e-02, 2.73535520e-01, 1.27419770e-01,
          4.41490812e-03, 0., 0., 7.94604328e-03, 0., 1.18317962e-01,
          2.09237769e-01, 1.76965833e-01, 0., 0., 0., 0., 4.33331616e-02,
          1.30202264e-01, 2.82964826e-01, 1.80220231e-01, 7.74956448e-03,
          0., 0., 1.12421393e-01, 9.08760726e-02, 1.18168153e-01,
          2.45955691e-01, 2.51869917e-01, 1.25454932e-01, 7.37842470e-02,
          1.06107429e-01, 0., 0., 1.24455923e-02, 1.78368226e-01,
          2.51133323e-01, 1.88334659e-01, 5.03231734e-02, 0., 0., 0.,
          6.24362286e-03, 1.57978877e-01 ]
      - [ 2.06918836e-01, 1.70543060e-01, 6.34503737e-02, 9.53590125e-03,
          1.32991020e-02, 8.20029061e-03, 4.29653190e-03, 2.25530729e-01,
          1.09913997e-01, 1.07829295e-01, 1.40500799e-01, 1.31895557e-01,
          1.28653869e-02, 0., 1.78218260e-02, 2.41893902e-01,
          1.91280141e-01, 5.73184825e-02, 4.24678735e-02, 3.22466046e-02,
          1.12356298e-01, 1.45587891e-01, 8.67447481e-02, 2.61586547e-01,
          1.42001156e-02, 0., 6.16900669e-03, 0., 1.37960976e-02,
          1.49426624e-01, 1.70056313e-01, 2.27948442e-01, 1.05952181e-01,
          0., 0., 0., 0., 1.10180564e-01, 1.34016618e-01, 2.77783811e-01,
          1.64968655e-01, 3.58192176e-02, 0., 3.20783556e-02,
          1.31638929e-01, 8.47988725e-02, 1.43890053e-01, 2.28864551e-01,
          1.51271597e-01, 1.32502288e-01, 1.32492229e-01, 1.30563602e-01,
          0., 0., 1.91691052e-02, 2.56807685e-01, 1.93188980e-01,
          1.51402473e-01, 9.83133540e-02, 0., 0., 8.62643495e-03,
          9.59437191e-02, 1.75271451e-01 ]
      - [ 3.22683513e-01, 1.29591525e-01, 0., 4.63752775e-03,
          1.16627654e-02, 0., 9.30390507e-03, 2.58052468e-01,
          8.00458044e-02, 8.51477608e-02, 1.44942850e-01, 6.95958063e-02,
          1.47979399e-02, 0., 5.82791008e-02, 1.30842939e-01,
          1.66441709e-01, 6.32717088e-03, 9.55222733e-03, 0.,
          1.38793169e-02, 1.25872672e-01, 1.39075905e-01, 2.58779138e-01,
          8.17293972e-02, 5.37161250e-03, 0., 0., 9.87022649e-03,
          8.61563161e-02, 1.60076588e-01, 2.90142179e-01, 1.62041426e-01,
          0., 0., 0., 0., 4.03257422e-02, 1.95793852e-01, 2.93501616e-01,
          1.25288025e-01, 6.20260369e-03, 0., 0., 1.10762194e-01,
          7.20696077e-02, 9.81607065e-02, 2.30330616e-01, 1.61442295e-01,
          1.12427808e-01, 7.62345567e-02, 1.06185347e-01, 4.00084965e-02,
          0., 1.13696903e-02, 2.53919899e-01, 2.54367799e-01,
          9.59894285e-02, 0., 0., 0., 0., 0., 2.31571764e-01 ]
      - [ 2.38380805e-01, 1.64556250e-01, 4.06156816e-02, 0.,
          9.82641056e-03, 8.86781700e-03, 0., 2.48835430e-01,
          1.41426221e-01, 6.43924773e-02, 1.11803807e-01, 1.15212597e-01,
          1.59960259e-02, 0., 1.05849430e-02, 2.41431266e-01,
          1.78799957e-01, 4.67238799e-02, 5.55377640e-03, 0.,
          1.21843345e-01, 1.02417074e-01, 1.62931502e-01, 1.05837911e-01,
          1.94947153e-01, 9.81435254e-02, 5.55377640e-03, 0.,
          4.17026728e-02, 5.60981818e-02, 1.23834670e-01, 2.75421530e-01,
          1.83782160e-01, 2.71747094e-02, 0., 0., 0., 1.18717760e-01,
          1.31069377e-01, 2.93342352e-01, 1.67162970e-01, 8.33533518e-03,
          0., 0., 7.39164129e-02, 9.61253643e-02, 1.50460288e-01,
          1.84142664e-01, 2.12922096e-01, 1.15461268e-01, 8.74765366e-02,
          5.86923882e-02, 1.18175335e-02, 0., 6.24623569e-03,
          2.76602477e-01, 2.29964525e-01, 9.77741405e-02, 0.,
          7.54150655e-03, 0., 3.13877165e-02, 2.40166411e-02,
          2.02844739e-01 ]
      - [ 2.08316803e-01, 1.33358628e-01, 1.08698517e-01, 4.20355797e-02,
          9.47771408e-03, 0., 4.26002452e-03, 2.46767953e-01,
          1.07021116e-01, 1.08049326e-01, 1.22661807e-01, 1.21435627e-01,
          1.10726334e-01, 0., 2.28588469e-02, 2.27539033e-01,
          1.18251890e-01, 9.11798421e-03, 0., 1.09060660e-01,
          7.19543025e-02, 1.40515819e-01, 1.24144226e-01, 2.72467971e-01,
          3.14340219e-02, 3.01229209e-03, 0., 6.37022266e-03,
          3.58223938e-03, 0., 1.30377859e-01, 3.13041538e-01,
          1.12266570e-01, 3.55419405e-02, 0., 0., 4.50442731e-03,
          5.40583432e-02, 1.96066543e-01, 2.76428342e-01, 1.11453131e-01,
          0., 5.35669737e-03, 0., 7.24674091e-02, 1.39730886e-01,
          1.19375914e-01, 2.46292919e-01, 1.87563404e-01, 1.44141689e-01,
          1.06289700e-01, 1.05054311e-01, 5.06605161e-03, 0.,
          1.55321667e-02, 2.28229478e-01, 2.12070674e-01, 1.63607955e-01,
          6.91647828e-02, 0., 3.58223938e-03, 0., 1.08985871e-01,
          1.65273160e-01 ]
      - [ 3.05837452e-01, 1.30106494e-01, 8.17681327e-02, 6.86876848e-03,
          8.58307704e-02, 0., 9.75401979e-03, 1.58035681e-01,
          2.41519332e-01, 8.43409300e-02, 9.49485153e-02, 1.26890093e-01,
          8.94802064e-03, 0., 3.99857350e-02, 1.20194905e-01,
          2.85416126e-01, 6.95281243e-03, 9.47206467e-03, 4.22893465e-02,
          1.42825276e-01, 9.56130102e-02, 8.40804577e-02, 1.30452946e-01,
          2.58351296e-01, 0., 7.72518478e-03, 0., 6.00347891e-02,
          8.13507438e-02, 1.31918997e-01, 1.68808416e-01, 2.19594911e-01,
          2.37975251e-02, 0., 8.58472381e-03, 5.16614225e-03, 0.,
          1.74086019e-01, 1.27935261e-01, 2.56572574e-01, 5.23830801e-02,
          0., 9.64078605e-02, 1.16288893e-01, 1.29884318e-01,
          9.60308015e-02, 9.64071527e-02, 2.77912259e-01, 8.36207494e-02,
          9.50844437e-02, 1.26767546e-01, 7.54939467e-02, 0.,
          4.34419047e-03, 1.99673027e-01, 2.68296927e-01, 1.31138220e-01,
          8.24719667e-02, 6.18151464e-02, 3.65301431e-03, 0., 0.,
          8.15635994e-02 ]
      - [ 3.13924760e-01, 1.37898654e-01, 7.86677748e-02, 6.58224663e-03,
          1.35114044e-02, 5.53498743e-03, 9.37445089e-03, 9.65709165e-02,
          2.55538255e-01, 1.00535497e-01, 7.65768513e-02, 8.10561106e-02,
          9.93888378e-02, 0., 5.39109809e-03, 1.43721879e-01,
          2.79431731e-01, 5.39109856e-03, 5.53498743e-03, 0.,
          9.85163674e-02, 1.20784029e-01, 7.72606060e-02, 1.50520191e-01,
          2.51456946e-01, 6.22510444e-03, 7.43626878e-02, 6.54146224e-02,
          7.58542418e-02, 8.52893889e-02, 8.25330243e-02, 1.99255154e-01,
          1.00997142e-01, 0., 0., 5.91020426e-03, 7.94660598e-02,
          1.26709223e-01, 1.12092778e-01, 2.42733523e-01, 2.29833871e-01,
          1.20682344e-02, 0., 3.69268656e-02, 1.16774626e-01,
          9.56482962e-02, 8.83443281e-02, 2.38692239e-01, 2.19728649e-01,
          1.18385233e-01, 1.02917217e-01, 7.09177777e-02, 0., 0.,
          4.40181326e-03, 1.53882086e-01, 2.81498283e-01, 1.35724589e-01,
          6.71031103e-02, 2.80264765e-02, 4.65435116e-03, 0.,
          8.34488571e-02, 1.64167061e-01 ]
      - [ 2.85535604e-01, 1.54565617e-01, 9.11570936e-02, 8.67743883e-03,
          1.21856956e-02, 0., 0., 1.37471214e-01, 2.06965029e-01,
          1.71940267e-01, 7.91513324e-02, 1.28545195e-01, 1.01904683e-01,
          0., 2.95802765e-03, 1.36787981e-01, 2.31887728e-01, 0., 0.,
          7.48511031e-03, 1.43364117e-01, 1.10623725e-01, 1.65382802e-01,
          2.00053528e-01, 1.61319107e-01, 0., 0., 1.22069428e-02,
          1.57669280e-02, 6.67952467e-03, 1.79380029e-01, 2.12239489e-01,
          1.57074913e-01, 8.36656522e-03, 0., 1.10253291e-02, 0.,
          1.22481480e-01, 1.39696077e-01, 2.44369969e-01, 2.01166049e-01,
          6.61435071e-03, 0., 7.14285672e-03, 1.11893989e-01,
          6.78309575e-02, 1.51617751e-01, 1.99050620e-01, 2.79271543e-01,
          8.73795971e-02, 1.40622050e-01, 1.03214458e-01, 3.51770734e-03,
          0., 0., 1.12046108e-01, 2.84735620e-01, 1.89793482e-01, 0.,
          4.42328304e-03, 0., 6.86438661e-03, 0., 0. ]
      - [ 2.94068694e-01, 9.17042512e-03, 0., 0., 7.15281582e-03, 0.,
          1.01322168e-02, 2.08424076e-01, 2.52474934e-01, 1.01298638e-01,
          5.65208867e-03, 7.68106356e-02, 1.36964982e-02, 1.02735013e-02,
          1.15849990e-02, 1.95114568e-01, 2.96514243e-01, 3.17840301e-03,
          8.45184363e-03, 8.23212788e-03, 1.38629049e-01, 8.55689049e-02,
          6.81276247e-02, 2.24438086e-01, 1.96403414e-01, 4.49494040e-03,
          0., 4.75282082e-03, 9.34212189e-03, 0., 1.07116617e-01,
          1.74664825e-01, 2.37885207e-01, 4.49494040e-03, 7.17715453e-03,
          0., 8.45184363e-03, 5.65208867e-03, 0., 2.06291929e-01,
          2.88364232e-01, 9.70561430e-03, 0., 0., 7.53589422e-02,
          6.45388430e-03, 1.12384468e-01, 2.24917874e-01, 2.37289160e-01,
          6.99120685e-02, 1.12075135e-01, 1.17642015e-01, 6.72150403e-03,
          5.65208867e-03, 1.19275944e-02, 2.08590299e-01, 2.93948859e-01,
          1.19961202e-02, 0., 6.72150403e-03, 0., 0., 9.65215918e-03,
          1.77711219e-01 ]
      - [ 2.71797329e-01, 1.84969917e-01, 6.58545792e-02, 9.90158692e-03,
          1.41918538e-02, 4.16397303e-02, 6.87280111e-03, 7.39342421e-02,
          2.22725019e-01, 1.62598103e-01, 1.00426167e-01, 1.04222126e-01,
          1.79885235e-02, 6.84038363e-03, 1.01723924e-01, 1.28521904e-01,
          2.14225948e-01, 1.20137669e-01, 1.24245007e-02, 1.69804305e-01,
          1.09973624e-01, 0., 7.58942664e-02, 5.35373576e-02,
          1.72072068e-01, 1.03738256e-01, 8.79889056e-02, 5.03744977e-03,
          5.46520613e-02, 7.75819495e-02, 1.17836915e-01, 1.10808246e-01,
          2.99277931e-01, 0., 0., 0., 5.03744977e-03, 0., 1.33989230e-01,
          1.71623617e-01, 3.23745936e-01, 2.38399934e-02, 0.,
          8.14207084e-03, 1.34581849e-01, 1.03766285e-01, 8.36727992e-02,
          8.15912932e-02, 3.11750025e-01, 6.74291253e-02, 1.20109469e-01,
          7.09677562e-02, 0., 0., 3.36874579e-03, 5.03744977e-03,
          3.67069930e-01, 1.31539240e-01, 0., 0., 0., 0., 0.,
          6.47836104e-02 ]
      - [ 2.18955100e-01, 1.71938226e-01, 1.32804617e-01, 9.82617065e-02,
          9.40239243e-03, 0., 5.97670535e-03, 2.07347587e-01,
          1.30981073e-01, 8.82377177e-02, 1.69024527e-01, 1.10470265e-01,
          8.70492402e-03, 0., 7.18979985e-02, 1.78838059e-01,
          1.76811010e-01, 7.25798681e-02, 0., 3.10245417e-02,
          1.05485931e-01, 1.50353760e-01, 1.27064347e-01, 2.26348147e-01,
          5.06346710e-02, 4.25304398e-02, 0., 6.31959690e-03,
          1.06079072e-01, 9.17678475e-02, 1.66006133e-01, 2.26015881e-01,
          1.46525707e-02, 5.97670581e-03, 0., 0., 7.13424608e-02,
          1.98343784e-01, 1.30260706e-01, 1.89242244e-01, 2.18920529e-01,
          8.08865428e-02, 6.74800202e-03, 4.46862960e-03, 7.25320801e-02,
          1.57680646e-01, 7.69775361e-02, 2.61347651e-01, 8.96505788e-02,
          1.44876420e-01, 1.11931212e-01, 1.04937412e-01, 1.00515811e-02,
          1.81807596e-02, 1.08362503e-01, 2.03538716e-01, 1.58810526e-01,
          2.03114435e-01, 1.21875107e-01, 9.39902216e-02, 1.12380087e-02,
          0., 3.90740447e-02, 2.31250688e-01 ]
      - [ 2.42713541e-01, 1.72790274e-01, 1.27008304e-01, 1.06602035e-01,
          1.30292550e-02, 0., 1.36457324e-01, 1.27357066e-01,
          1.45700172e-01, 1.35966077e-01, 9.42188948e-02, 7.01799318e-02,
          1.08913351e-02, 6.86617009e-03, 8.95605609e-03, 1.77423343e-01,
          1.82658911e-01, 9.64089707e-02, 0., 4.42443229e-03,
          1.42165180e-02, 0., 1.91541791e-01, 1.45578578e-01,
          1.28123447e-01, 1.36486143e-01, 0., 7.66334170e-03,
          7.03277364e-02, 1.26480579e-01, 1.97757989e-01, 2.04764292e-01,
          2.24389836e-01, 1.07344696e-02, 6.68126019e-03, 4.42443229e-03,
          9.97476131e-02, 6.62274882e-02, 1.49852425e-01, 2.15199590e-01,
          2.38060281e-01, 7.32151465e-03, 0., 1.12072445e-01,
          1.73584878e-01, 8.19521546e-02, 4.84685116e-02, 1.32663876e-01,
          2.06887051e-01, 1.07555516e-01, 1.26255020e-01, 1.32503569e-01,
          7.07864016e-02, 8.37566778e-02, 4.73472662e-02, 1.12412415e-01,
          2.84078509e-01, 1.35278091e-01, 1.63205221e-01, 7.14471284e-03,
          1.34359468e-02, 0., 1.02495709e-02, 1.58679754e-01 ]
      - [ 1.55875430e-01, 1.86169699e-01, 1.02871269e-01, 1.07352182e-01,
          2.20223516e-02, 5.20686386e-03, 1.41043775e-02, 2.24649802e-01,
          1.19204268e-01, 1.37049600e-01, 1.26513988e-01, 7.07500204e-02,
          1.06568322e-01, 2.94090603e-02, 5.20686386e-03, 2.46428147e-01,
          2.06591278e-01, 4.84803654e-02, 0., 0., 1.57500878e-01,
          7.93929175e-02, 9.92573723e-02, 2.49072760e-01, 6.58937590e-03,
          2.92803464e-03, 0., 0., 1.40147448e-01, 1.26581252e-01,
          1.97716609e-01, 1.73571020e-01, 1.92767352e-01, 2.91722417e-02,
          0., 0., 1.35599419e-01, 1.14678495e-01, 1.91275597e-01,
          2.06207678e-01, 1.88290954e-01, 1.87981967e-02, 0., 0.,
          6.45783618e-02, 1.67304680e-01, 9.46236998e-02, 1.55695364e-01,
          2.04559222e-01, 7.67320469e-02, 4.87436354e-02, 1.30430758e-01,
          9.31878481e-03, 0., 0., 1.92675218e-01, 2.35982478e-01,
          1.60632670e-01, 9.66874287e-02, 1.32696718e-01, 1.04461191e-02,
          0., 1.97016839e-02, 1.57224074e-01 ]
      - [ 2.06399664e-01, 9.76968557e-02, 6.02167472e-03, 0.,
          6.31376803e-02, 1.73514970e-02, 4.47798930e-02, 2.67331511e-01,
          1.45870358e-01, 9.96658355e-02, 1.57580882e-01, 6.27137208e-03,
          5.81761934e-02, 5.50070368e-02, 6.02167472e-03, 2.29072988e-01,
          1.61038607e-01, 9.24916416e-02, 4.61380370e-02, 4.43452969e-03,
          1.73771247e-01, 1.27150387e-01, 1.39396682e-01, 1.82578325e-01,
          1.49859861e-01, 9.54456851e-02, 0., 0., 3.88862155e-02,
          1.46530867e-01, 1.29721954e-01, 2.31996000e-01, 1.54630944e-01,
          1.06022775e-01, 0., 5.63107012e-03, 1.09161912e-02, 0.,
          1.33894548e-01, 2.65355736e-01, 1.56411812e-01, 1.16666660e-01,
          0., 0., 2.13611256e-02, 1.55062690e-01, 9.67304260e-02,
          2.44200364e-01, 9.59448665e-02, 1.76294416e-01, 9.04362500e-02,
          1.12039261e-01, 8.63849744e-03, 1.23931020e-02, 2.16305293e-02,
          1.81239769e-01, 2.12706551e-01, 2.18602002e-01, 4.53848727e-02,
          4.43452969e-03, 1.38968397e-02, 0., 6.47999719e-02,
          2.11693317e-01 ]
      - [ 3.16973418e-01, 1.26206167e-02, 0., 5.86336665e-03,
          6.36032550e-03, 0., 6.17577136e-03, 2.33085454e-01,
          1.70610726e-01, 1.45376578e-01, 8.32487047e-02, 7.13881254e-02,
          1.07371574e-02, 0., 1.94511916e-02, 1.86590776e-01,
          2.62140095e-01, 6.17577136e-03, 8.87534767e-03, 4.61746613e-03,
          6.75812662e-02, 8.73110816e-02, 1.36998534e-01, 2.19678506e-01,
          1.86976016e-01, 0., 0., 0., 3.67213576e-03, 0., 1.06507957e-01,
          2.36755788e-01, 1.79904491e-01, 0., 0., 0., 3.67213576e-03, 0.,
          1.47537336e-01, 2.50413597e-01, 2.14169830e-01, 7.01587601e-03,
          0., 0., 1.12145282e-01, 1.12867482e-01, 6.86797574e-02,
          2.34196901e-01, 2.32685700e-01, 8.97704810e-02, 1.42936409e-01,
          6.61968440e-02, 6.36032550e-03, 2.22216304e-02, 1.03166252e-02,
          2.27545351e-01, 2.33750537e-01, 1.67901844e-01, 6.27008546e-03,
          0., 0., 0., 0., 1.64165348e-01 ]
      - [ 2.73849040e-01, 9.37926546e-02, 8.73719305e-02, 1.23448811e-01,
          8.90691392e-03, 6.90458342e-03, 4.32423363e-03, 1.82692036e-01,
          1.38195440e-01, 1.78506374e-01, 1.08877324e-01, 1.08364649e-01,
          1.31106228e-02, 0., 1.22777419e-02, 1.99685901e-01,
          2.15935543e-01, 1.10767530e-02, 3.85071672e-02, 1.10797763e-01,
          4.32270020e-02, 1.15734734e-01, 1.59584865e-01, 1.98290393e-01,
          1.63312539e-01, 8.73574242e-03, 6.20878162e-03, 7.91949127e-03,
          1.18281785e-02, 0., 1.30612686e-01, 2.69161791e-01,
          1.44194216e-01, 1.52884750e-02, 0., 4.73333783e-02,
          9.88170225e-03, 9.58513170e-02, 1.22428805e-01, 3.19974214e-01,
          1.09334514e-01, 6.23820536e-03, 0., 0., 6.85579628e-02,
          9.46080908e-02, 1.45137012e-01, 2.14631781e-01, 1.80838987e-01,
          5.95257245e-02, 1.11242227e-01, 1.11112319e-01, 9.14464053e-03,
          7.09567405e-03, 1.06121665e-02, 1.64036185e-01, 2.94578731e-01,
          1.49497092e-01, 3.68195213e-02, 4.57232026e-03, 5.80603955e-03,
          0., 8.64846725e-03, 2.15801343e-01 ]
      - [ 2.16059268e-01, 1.30290374e-01, 9.13563371e-02, 0.,
          6.47852290e-03, 0., 1.08377347e-02, 1.88688919e-01,
          2.02093050e-01, 1.03969961e-01, 1.23148911e-01, 6.89048097e-02,
          1.09416962e-01, 5.11926878e-03, 1.29753398e-02, 2.31386304e-01,
          2.67796963e-01, 2.87877629e-03, 0., 0., 1.18232287e-01,
          1.32263973e-01, 7.97790214e-02, 1.28347471e-01, 2.44507998e-01,
          0., 0., 0., 9.68610644e-02, 1.23189777e-01, 9.20769274e-02,
          1.68375015e-01, 1.73135996e-01, 4.07120446e-03, 0.,
          4.30477457e-03, 7.04314187e-02, 4.51520309e-02, 1.46952391e-01,
          2.08709061e-01, 2.31840983e-01, 0., 0., 1.09017260e-01,
          1.28556132e-01, 9.23628137e-02, 1.23023756e-01, 2.14637935e-01,
          2.54082739e-01, 1.59924552e-01, 1.22270957e-01, 6.98946193e-02,
          1.08938873e-01, 8.74103140e-03, 0., 0., 2.93206036e-01,
          1.55905947e-01, 1.30213201e-01, 6.74628541e-02, 0., 0., 0., 0. ]
      - [ 1.56716898e-01, 1.91255808e-01, 1.33482069e-01, 4.45458340e-03,
          3.54259973e-03, 6.91296067e-03, 0., 2.24334106e-01,
          1.70191750e-01, 8.41197744e-02, 0., 1.23095289e-01,
          1.12606212e-01, 0., 1.81667767e-02, 2.39313945e-01,
          1.91056877e-01, 0., 0., 9.80870519e-03, 1.30702913e-01,
          1.12835668e-01, 1.09911680e-01, 2.05928713e-01, 1.59777492e-01,
          7.49168638e-03, 0., 0., 1.10533200e-01, 1.73875168e-01,
          1.08074456e-01, 2.34729797e-01, 0., 1.17489815e-01, 0., 0., 0.,
          1.33325458e-01, 1.65497616e-01, 2.73402989e-01, 1.39248788e-01,
          0., 0., 0., 1.23868614e-01, 9.49720815e-02, 8.32924470e-02,
          2.44294882e-01, 1.53051898e-01, 1.04740039e-01, 1.44289374e-01,
          1.06653608e-01, 0., 0., 6.07757177e-03, 2.15866834e-01,
          2.15651438e-01, 1.64064527e-01, 1.18743204e-01, 9.02476460e-02,
          0., 0., 1.08907297e-01, 1.69130653e-01 ]
      - [ 2.66554326e-01, 1.21007733e-01, 1.37822285e-01, 1.02739982e-01,
          8.38718098e-03, 5.60884643e-03, 3.15408595e-03, 1.07705191e-01,
          2.16646433e-01, 1.30795732e-01, 7.79857412e-02, 1.27441034e-01,
          3.38112302e-02, 0., 1.15820616e-02, 1.64849788e-01,
          2.83969790e-01, 4.13299091e-02, 0., 2.21005715e-02,
          1.16304711e-01, 1.14460431e-01, 1.01523422e-01, 8.13606828e-02,
          2.40058169e-01, 0., 0., 0., 3.75086162e-03, 8.49899277e-02,
          1.17552072e-01, 1.68529630e-01, 2.17401341e-01, 4.59206104e-02,
          0., 0., 1.29264861e-01, 8.28912780e-02, 1.14275657e-01,
          2.45054349e-01, 2.30650559e-01, 8.97614285e-03, 0., 0.,
          1.29577294e-01, 8.22422728e-02, 9.95460078e-02, 1.66395992e-01,
          2.78802454e-01, 7.84329474e-02, 9.33752134e-02, 1.40443355e-01,
          0., 0., 0., 0., 3.48573059e-01, 1.38862938e-01, 6.83546439e-02,
          0., 0., 0., 3.70953344e-02, 7.13684112e-02 ]
      - [ 1.78738087e-01, 1.84458122e-01, 5.01565225e-02, 0.,
          1.72160082e-02, 0., 2.99416273e-03, 2.57541507e-01,
          1.02035917e-01, 9.49495211e-02, 1.11094750e-01, 1.47601798e-01,
          8.02536458e-02, 0., 1.71721578e-02, 2.46406972e-01,
          1.13607444e-01, 2.99416273e-03, 0., 3.68423313e-02,
          1.70936242e-01, 8.28160420e-02, 7.01324344e-02, 2.97263980e-01,
          3.15254666e-02, 5.32445824e-03, 0., 8.50979146e-03,
          7.96192233e-03, 1.24772303e-01, 1.02286138e-01, 3.03540498e-01,
          4.99922894e-02, 3.99776548e-02, 0., 0., 0., 0., 1.78417832e-01,
          2.84523338e-01, 1.13551632e-01, 0., 0., 3.40398028e-02,
          1.26524061e-01, 8.24164897e-02, 6.47044778e-02, 2.86813557e-01,
          1.00601375e-01, 9.63681415e-02, 1.09930195e-01, 1.22493967e-01,
          0., 0., 1.68682300e-02, 2.19689131e-01, 2.19148561e-01,
          1.76773071e-01, 0., 0., 5.03556151e-03, 0., 0., 2.57644206e-01 ]
      - [ 2.85074890e-01, 1.34357274e-01, 1.38329402e-01, 6.63056225e-03,
          1.24573810e-02, 0., 3.13539919e-03, 1.62623584e-01,
          2.20566511e-01, 1.08451314e-01, 1.28452286e-01, 0.,
          1.15223452e-02, 7.08004786e-03, 4.69679981e-02, 1.55399472e-01,
          2.41001651e-01, 2.47530155e-02, 1.51805775e-02, 4.68851533e-03,
          6.81030080e-02, 1.24910071e-01, 1.01503275e-01, 1.10941656e-01,
          2.13425428e-01, 5.43067092e-03, 9.01191216e-03, 4.68851533e-03,
          1.39897037e-02, 4.18345146e-02, 2.18965575e-01, 1.91252977e-01,
          2.12859765e-01, 2.68801376e-02, 3.42345238e-02, 3.53983529e-02,
          3.72863910e-03, 6.39521554e-02, 1.82370394e-01, 1.98223606e-01,
          2.55886793e-01, 8.39109067e-03, 3.34756151e-02, 7.68237710e-02,
          9.51746851e-02, 1.32464662e-01, 1.56115234e-01, 1.25055820e-01,
          1.54843032e-01, 8.25070515e-02, 1.69958130e-01, 7.27468133e-02,
          1.22670576e-01, 0., 6.27079839e-03, 5.24119809e-02,
          3.03678900e-01, 2.15678692e-01, 2.97017675e-02, 5.95358666e-03,
          3.80457118e-02, 0., 5.02330437e-02, 1.63608491e-01 ]
      - [ 3.22112024e-01, 1.64080933e-01, 8.79513249e-02, 4.72483225e-03,
          1.06278742e-02, 2.71856096e-02, 2.42506526e-02, 1.87021390e-01,
          1.75225139e-01, 1.09508626e-01, 1.29654408e-01, 1.18266605e-01,
          2.16094945e-02, 8.52844957e-03, 3.93225513e-02, 1.15734292e-02,
          2.56638139e-01, 2.71380227e-02, 8.52844957e-03, 1.16288036e-01,
          8.51892754e-02, 9.77543220e-02, 1.01822205e-01, 1.57750830e-01,
          2.04429582e-01, 1.38758002e-02, 0., 8.18364974e-03,
          1.06278742e-02, 4.96716872e-02, 1.95925042e-01, 2.02545524e-01,
          2.25305617e-01, 0., 1.92476362e-02, 0., 3.92552353e-02,
          1.61372170e-01, 1.49252072e-01, 2.18670994e-01, 2.22401202e-01,
          4.95548546e-02, 0., 1.79303437e-02, 6.17318824e-02,
          9.49687138e-02, 1.62959099e-01, 7.96547756e-02, 2.59749323e-01,
          1.10204056e-01, 1.02027021e-01, 7.42203370e-02, 0., 0.,
          5.19626513e-02, 1.00676984e-01, 3.23430300e-01, 1.70946732e-01,
          6.42184243e-02, 0., 5.31393709e-03, 0., 0., 0. ]
      - [ 2.96691209e-01, 1.90611824e-01, 9.73943472e-02, 9.38975811e-02,
          7.75476173e-03, 0., 0., 5.16856350e-02, 2.55478531e-01,
          7.21816644e-02, 1.18805557e-01, 6.44290494e-03, 1.05938138e-02,
          0., 8.06070864e-03, 8.19484368e-02, 2.95510441e-01, 0.,
          7.66194845e-03, 0., 7.71513432e-02, 1.02572739e-01,
          7.63801783e-02, 1.12572983e-01, 2.64189065e-01, 1.07659008e-02,
          0., 0., 1.05938138e-02, 4.24452312e-02, 1.25998259e-01,
          1.78052649e-01, 2.15466097e-01, 0., 0., 5.18753752e-02,
          1.26431242e-01, 1.11460052e-01, 1.47119150e-01, 1.23305961e-01,
          2.96699852e-01, 8.61726049e-03, 2.50526052e-02, 1.10568285e-01,
          1.31737575e-01, 9.23527107e-02, 6.81533813e-02, 1.38593048e-01,
          2.81697541e-01, 1.08954303e-01, 6.54782951e-02, 1.60950646e-01,
          0., 5.41781588e-03, 5.27697289e-03, 1.08814090e-01,
          3.46145213e-01, 5.57705164e-02, 0., 0., 0., 0., 0., 0. ]
      - [ 2.69578069e-01, 1.48682266e-01, 0., 0., 1.18846698e-02, 0.,
          6.83025038e-03, 2.04064965e-01, 2.29551017e-01, 5.43189840e-03,
          9.03092995e-02, 1.21462770e-01, 1.13726512e-01, 1.16598466e-02,
          3.71877328e-02, 1.99305698e-01, 2.59712964e-01, 2.46401764e-02,
          5.43189840e-03, 1.07950725e-01, 1.25834504e-02, 1.24216199e-01,
          1.33807555e-01, 1.09094061e-01, 2.49483630e-01, 0., 0.,
          4.56766365e-03, 1.30643221e-02, 1.08953126e-01, 1.40946537e-01,
          1.97818518e-01, 1.73915252e-01, 1.90789867e-02, 0., 0., 0.,
          5.10812551e-02, 1.18867740e-01, 2.72903144e-01, 2.01476440e-01,
          5.29068941e-03, 0., 0., 5.60810678e-02, 1.07930496e-01,
          1.04354650e-01, 2.21214101e-01, 2.59479761e-01, 7.93164074e-02,
          1.11348115e-01, 0., 0., 0., 4.31982987e-03, 1.16048194e-01,
          3.02100122e-01, 1.22844212e-01, 1.27938390e-01, 4.95009497e-02,
          0., 0., 0., 1.15763046e-01 ]
      - [ 2.86687076e-01, 1.66396379e-01, 3.32672857e-02, 0.,
          1.06941080e-02, 5.46910753e-03, 6.15101028e-03, 1.51031554e-01,
          2.73405105e-01, 2.52101440e-02, 8.38243291e-02, 1.33490875e-01,
          1.70334820e-02, 0., 5.32693136e-03, 1.64830819e-01,
          2.82464534e-01, 9.37165692e-03, 0., 4.59895283e-03,
          1.28017381e-01, 9.03775170e-02, 6.15893453e-02, 1.11961275e-01,
          2.61257589e-01, 0., 0., 4.20364402e-02, 0., 1.12662330e-01,
          1.81378931e-01, 1.32027254e-01, 1.79548860e-01, 0., 0., 0., 0.,
          5.79316653e-02, 1.04841374e-01, 2.09763974e-01, 2.67746776e-01,
          1.61667503e-02, 0., 5.83985820e-03, 1.26972035e-01,
          8.87028277e-02, 0., 2.44858906e-01, 2.80766040e-01,
          8.44985694e-02, 7.00238347e-02, 1.08717881e-01, 0., 0.,
          6.27454137e-03, 7.84923807e-02, 3.07998061e-01, 1.36983857e-01,
          1.01922840e-01, 7.10858852e-02, 0., 0., 0., 0. ]
      - [ 2.78103083e-01, 1.52173832e-01, 0., 8.81142169e-03,
          1.04280943e-02, 0., 5.36986161e-03, 1.98023245e-01,
          2.09178478e-01, 9.25738439e-02, 1.12748452e-01, 1.09083593e-01,
          1.10606644e-02, 0., 5.36986161e-03, 1.54922828e-01,
          2.76747346e-01, 3.60950977e-02, 7.79681886e-03, 4.63601621e-03,
          1.10820860e-01, 1.12879582e-01, 1.38293415e-01, 4.63601621e-03,
          2.46290654e-01, 0., 0., 0., 4.63601621e-03, 9.59531218e-02,
          1.59653947e-01, 1.52362317e-01, 2.89561480e-01, 6.20058179e-03,
          0., 0., 0., 0., 1.63178757e-01, 1.76259041e-01, 2.85664201e-01,
          8.76894686e-03, 0., 0., 1.35012880e-01, 8.48557577e-02,
          7.04406155e-03, 1.32380232e-01, 2.33615622e-01, 8.87930393e-02,
          6.99686930e-02, 1.14966325e-01, 0., 3.42582054e-02,
          2.87648905e-02, 1.37902990e-01, 2.95031190e-01, 1.56422421e-01,
          1.03618219e-01, 0., 3.66510451e-02, 0., 0., 1.63715899e-01 ]
      - [ 2.42112502e-01, 1.01752952e-01, 6.55758157e-02, 0.,
          7.35569187e-03, 7.17687747e-03, 2.10375246e-02, 2.42286414e-01,
          1.39869571e-01, 1.10004112e-01, 7.76398182e-02, 1.16505951e-01,
          1.22164711e-01, 8.88914801e-03, 7.57550588e-03, 2.35660329e-01,
          2.11204484e-01, 1.00139026e-02, 1.29259294e-02, 0.,
          1.54968798e-01, 1.04529932e-01, 1.13567054e-01, 1.80321783e-01,
          1.84661329e-01, 1.98818035e-02, 5.49966237e-03, 6.54023746e-03,
          1.36345522e-02, 0., 1.26037076e-01, 2.45801568e-01,
          1.83819145e-01, 0., 0., 0., 5.64082377e-02, 1.27074331e-01,
          1.19731978e-01, 2.33135775e-01, 2.33550876e-01, 8.74744076e-03,
          0., 4.16876376e-02, 1.04246587e-01, 7.52579942e-02,
          8.56678560e-02, 2.29142681e-01, 2.43845642e-01, 8.60492066e-02,
          7.90478885e-02, 1.19135804e-01, 0., 0., 5.35669131e-03,
          1.38567418e-01, 3.01046729e-01, 1.53625786e-01, 8.21215287e-02,
          0., 0., 0., 0., 1.65141344e-01 ]
      - [ 2.68430501e-01, 1.92936018e-01, 1.04622930e-01, 8.05792306e-03,
          1.64272245e-02, 1.28717292e-02, 5.11207394e-02, 1.60569325e-01,
          2.12083086e-01, 8.02517906e-02, 1.30112082e-01, 1.27975121e-01,
          1.11796530e-02, 0., 5.93140796e-02, 1.58994481e-01,
          2.59794772e-01, 4.39594910e-02, 7.21970573e-03, 1.16372861e-01,
          1.28164608e-02, 1.35309577e-01, 9.41111371e-02, 1.15224101e-01,
          2.32781008e-01, 1.16408318e-02, 0., 0., 1.23434830e-02,
          1.64835807e-02, 1.49893060e-01, 2.26137325e-01, 2.00441182e-01,
          0., 0., 0., 0., 1.12449445e-01, 1.61763892e-01, 2.14960486e-01,
          2.48641655e-01, 1.96902473e-02, 0., 0., 9.69493464e-02,
          7.48645514e-02, 1.06738813e-01, 1.76017627e-01, 2.65319675e-01,
          8.13628659e-02, 1.36475191e-01, 0., 0., 0., 3.11114313e-03,
          1.67294577e-01, 2.80988455e-01, 1.94606319e-01, 0., 0., 0., 0.,
          0., 0. ]
      - [ 2.93852448e-01, 1.31951168e-01, 1.48844138e-01, 0.,
          3.12287267e-02, 0., 8.39618128e-03, 1.05316259e-01,
          2.15725690e-01, 1.01454467e-01, 1.19514391e-01, 1.11697406e-01,
          6.01353087e-02, 0., 0., 1.21291354e-01, 2.80455679e-01,
          5.93699701e-03, 0., 5.14237136e-02, 1.47424936e-01,
          6.79662004e-02, 8.96971002e-02, 6.43075779e-02, 2.76113629e-01,
          7.27130659e-03, 0., 0., 1.03579126e-01, 9.53963920e-02,
          7.28722587e-02, 1.88695088e-01, 1.86854467e-01, 0.,
          7.46537885e-03, 0., 1.05121590e-01, 1.29767597e-01,
          1.29222974e-01, 1.44689530e-01, 2.87115246e-01, 4.62305397e-02,
          2.78505795e-02, 5.81104979e-02, 1.00013249e-01, 1.25898704e-01,
          9.32371691e-02, 1.69297501e-01, 2.71819890e-01, 1.05394371e-01,
          9.34809372e-02, 1.37144685e-01, 1.03220260e-02, 0.,
          6.02766452e-03, 1.21267796e-01, 2.97506064e-01, 1.26386896e-01,
          1.37102574e-01, 0., 4.99239936e-03, 0., 0., 0. ]
      - [ 1.75830856e-01, 1.06846318e-01, 1.91107109e-01, 1.00503124e-01,
          6.94026472e-03, 0., 4.12670616e-03, 1.59321874e-01,
          1.98188737e-01, 1.08133011e-01, 1.11139260e-01, 1.16448544e-01,
          9.53466445e-03, 0., 5.83604351e-03, 2.42473468e-01,
          1.10804379e-01, 0., 8.86143465e-03, 0., 1.11050330e-01,
          1.66316822e-01, 3.96298617e-02, 2.20878914e-01, 1.38014019e-01,
          7.78178349e-02, 1.80065520e-02, 0., 7.64626935e-02,
          1.30567491e-01, 9.92588103e-02, 2.97220111e-01, 1.60752222e-01,
          1.09532140e-01, 2.20728386e-02, 4.36346047e-03, 1.07986055e-01,
          1.75522923e-01, 1.16662420e-01, 2.75937587e-01, 1.09405518e-01,
          5.05416188e-03, 0., 0., 1.48167953e-01, 5.63077815e-02,
          1.76206678e-01, 1.21178024e-01, 1.08249441e-01, 9.04788375e-02,
          1.58143088e-01, 5.67837507e-02, 7.75945187e-03, 0.,
          7.72036007e-03, 2.48540908e-01, 1.68157861e-01, 1.56045586e-01,
          1.51120916e-01, 0., 4.90750838e-03, 0., 9.91440751e-03,
          2.48064652e-01 ]
      - [ 1.32051915e-01, 1.57798484e-01, 1.05643243e-01, 1.07398421e-01,
          3.92416827e-02, 0., 7.82777276e-03, 2.45207191e-01,
          8.16342905e-02, 9.38826799e-02, 1.03770867e-01, 1.32045984e-01,
          7.84041956e-02, 0., 5.00965910e-03, 2.68826962e-01,
          1.46788076e-01, 1.31557524e-01, 0., 0., 6.33529499e-02,
          1.57189324e-01, 8.98964852e-02, 2.75082558e-01, 4.86429688e-03,
          0., 0., 4.32503922e-03, 4.86429688e-03, 1.28268450e-01,
          1.82770401e-01, 2.10276514e-01, 9.72859375e-03, 5.00965910e-03,
          0., 7.73333088e-02, 1.07539810e-01, 1.75375208e-01,
          1.14074513e-01, 2.74876177e-01, 1.02907799e-01, 5.00965910e-03,
          0., 0., 1.07836045e-01, 1.26877680e-01, 1.13770373e-01,
          2.51763791e-01, 3.58557105e-02, 7.08983913e-02, 1.65328890e-01,
          1.10403247e-01, 4.86429688e-03, 0., 9.50126797e-02,
          2.02417046e-01, 1.82793960e-01, 1.87301964e-01, 1.30092070e-01,
          0., 1.08768977e-02, 1.08768977e-02, 2.22316980e-02,
          2.68286139e-01 ]
      - [ 2.24571496e-01, 1.50835708e-01, 9.81774181e-02, 6.06874935e-02,
          7.21483529e-02, 2.96712872e-02, 4.56504449e-02, 2.48758972e-01,
          7.93121308e-02, 9.83860567e-02, 1.11102559e-01, 1.11940056e-01,
          1.07269669e-02, 6.25257939e-03, 3.62230837e-02, 2.17840910e-01,
          1.89696267e-01, 1.08608175e-02, 0., 6.51185121e-03,
          2.60560140e-02, 1.62766904e-01, 8.50973129e-02, 2.44373590e-01,
          1.07195444e-01, 3.41730267e-02, 3.09757609e-02, 6.51185121e-03,
          9.24262255e-02, 8.31138063e-03, 1.15552776e-01, 2.76688755e-01,
          1.04393855e-01, 0., 0., 0., 1.09123148e-01, 7.75685906e-02,
          1.09990820e-01, 3.09727848e-01, 1.31442159e-01, 0., 0., 0.,
          1.11041039e-01, 1.07463337e-01, 9.32658687e-02, 2.59322882e-01,
          1.48992658e-01, 1.07034273e-01, 1.18471593e-01, 1.12431623e-01,
          3.66188306e-03, 0., 0., 2.53170878e-01, 2.36236826e-01,
          1.22763894e-01, 0., 0., 0., 0., 4.35473723e-03, 2.48851046e-01 ]
      - [ 1.84158564e-01, 2.27257028e-01, 1.25569463e-01, 7.30642118e-03,
          9.94446874e-03, 4.43347245e-02, 7.54102170e-02, 2.17981547e-01,
          1.25726700e-01, 1.46727949e-01, 0., 0., 1.67499445e-02, 0.,
          1.44452974e-02, 2.47231796e-01, 2.17404529e-01, 7.30642118e-03,
          0., 9.13171098e-03, 1.33160204e-02, 0., 1.34938568e-01,
          2.56564498e-01, 1.41523495e-01, 0., 4.74366881e-02, 0.,
          5.49531030e-03, 5.46298325e-02, 1.81941658e-01, 2.74848014e-01,
          1.49119124e-01, 0., 1.56034473e-02, 8.98927301e-02,
          4.61218245e-02, 6.90944493e-02, 1.76446512e-01, 2.56929934e-01,
          1.63848788e-01, 6.45879358e-02, 0., 0., 1.22245573e-01,
          1.33880839e-01, 1.33503944e-01, 1.23497471e-01, 1.64342180e-01,
          1.58346891e-01, 3.38084549e-02, 0., 1.07051067e-01, 0.,
          5.55565692e-02, 2.84017086e-01, 2.07852617e-01, 7.25319237e-02,
          5.45103885e-02, 0., 8.92433673e-02, 5.48766963e-02, 0.,
          1.90878108e-01 ]
      - [ 1.84158564e-01, 2.27257028e-01, 1.25569463e-01, 7.30642164e-03,
          9.94446874e-03, 4.43347245e-02, 7.54102170e-02, 2.17981547e-01,
          1.25726700e-01, 1.46727949e-01, 0., 0., 1.67499445e-02, 0.,
          1.44452974e-02, 2.47231796e-01, 2.17404529e-01, 7.30642118e-03,
          0., 9.13171098e-03, 1.33160204e-02, 0., 1.34938568e-01,
          2.56564498e-01, 1.41523495e-01, 0., 4.74366881e-02, 0.,
          5.49531030e-03, 5.46298325e-02, 1.81941658e-01, 2.74848014e-01,
          1.49119124e-01, 0., 1.56034473e-02, 8.98927301e-02,
          4.61218245e-02, 6.90944493e-02, 1.76446512e-01, 2.56929934e-01,
          1.63848788e-01, 6.45879358e-02, 0., 0., 1.22245573e-01,
          1.33880839e-01, 1.33503944e-01, 1.23497471e-01, 1.64342180e-01,
          1.58346891e-01, 3.38084549e-02, 0., 1.07051067e-01, 0.,
          5.55565692e-02, 2.84017086e-01, 2.07852617e-01, 7.25319237e-02,
          5.45103885e-02, 0., 8.92433673e-02, 5.48766963e-02, 0.,
          1.90878108e-01 ]
      - [ 2.96214938e-01, 1.68518111e-01, 7.83682764e-02, 5.63607644e-03,
          1.20122442e-02, 0., 2.94795390e-02, 1.23650700e-01,
          2.25326061e-01, 1.05409488e-01, 9.67669189e-02, 1.55534938e-01,
          1.14919834e-01, 0., 4.19764780e-03, 8.72546360e-02,
          2.69260317e-01, 1.11059332e-02, 0., 1.09835319e-01,
          5.51971681e-02, 1.25860274e-01, 1.16760239e-01, 2.52403945e-01,
          4.99187270e-03, 0., 0., 0., 1.64831340e-01, 1.67990819e-01,
          1.28450722e-01, 1.10519513e-01, 2.49840587e-01, 5.93637070e-03,
          0., 0., 1.06844027e-02, 2.95338240e-02, 1.90138236e-01,
          1.42864645e-01, 2.73821801e-01, 0., 7.32051209e-03, 0.,
          1.12454876e-01, 1.10315017e-01, 1.05879754e-01, 9.03327540e-02,
          2.39986554e-01, 1.44777536e-01, 1.25723958e-01, 0.,
          7.89284427e-03, 0., 2.99887210e-02, 1.15233749e-01,
          2.37240747e-01, 1.87934384e-01, 1.92416146e-01, 5.85156865e-02,
          1.22275418e-02, 5.27826278e-03, 2.96818535e-03, 0. ]
      - [ 2.45851114e-01, 1.53673410e-01, 1.46602705e-01, 1.42335221e-01,
          8.93055368e-03, 0., 4.55904379e-02, 1.05513893e-01,
          2.17641547e-01, 1.29213035e-01, 7.35122412e-02, 1.19186409e-01,
          7.78417988e-03, 5.94405178e-03, 3.65047865e-02, 1.54038697e-01,
          1.85937658e-01, 3.41275185e-02, 0., 1.11071602e-01,
          5.40084057e-02, 8.40753093e-02, 9.71074626e-02, 8.39910135e-02,
          2.47749820e-01, 1.31146163e-02, 6.79312879e-03, 0.,
          1.37551934e-01, 1.01050638e-01, 1.99745223e-01, 2.09053770e-01,
          1.52634352e-01, 1.52945789e-02, 0., 0., 1.34109274e-01,
          9.91818011e-02, 1.42350674e-01, 1.85985848e-01, 2.47091547e-01,
          2.92732101e-03, 0., 6.01459891e-02, 1.34271607e-01,
          3.79477926e-02, 1.14802912e-01, 2.05332965e-01, 2.67966896e-01,
          5.42676151e-02, 7.17402101e-02, 1.45816624e-01, 5.17662540e-02,
          0., 0., 2.10857540e-02, 2.89293647e-01, 1.26331240e-01,
          1.75702646e-01, 1.50503889e-01, 6.02959981e-03, 0., 0., 0. ]
      - [ 2.72994041e-01, 1.27348453e-01, 1.67297974e-01, 1.48053259e-01,
          1.88107416e-02, 0., 4.52982597e-02, 1.52209431e-01,
          2.15085968e-01, 9.73952338e-02, 5.79484552e-02, 1.47422731e-01,
          9.13250726e-03, 0., 0., 1.09618865e-01, 2.68025398e-01,
          2.90257554e-03, 0., 1.09719284e-01, 1.02143168e-01,
          5.30234240e-02, 1.01348653e-01, 1.34301931e-01, 2.28777573e-01,
          6.49035629e-03, 0., 0., 1.22559123e-01, 2.15572864e-01,
          8.28238353e-02, 1.03228010e-01, 1.11933380e-01, 2.90257554e-03,
          0., 1.96418837e-02, 1.51429370e-01, 9.38865840e-02,
          1.32091075e-01, 1.94751590e-01, 2.41392851e-01, 1.45209320e-02,
          0., 0., 1.00447185e-01, 5.55035248e-02, 1.17899589e-01,
          2.37215564e-01, 2.42584094e-01, 1.25869870e-01, 1.02097444e-01,
          1.01587027e-01, 1.00927996e-02, 5.16159041e-03, 0.,
          3.31326723e-02, 3.08752477e-01, 1.55348212e-01, 6.89938217e-02,
          1.32577643e-01, 0., 0., 0., 6.06766231e-02 ]
      - [ 2.66800195e-01, 1.62790045e-01, 1.00202553e-01, 1.45912513e-01,
          1.07811261e-02, 0., 5.23414789e-03, 1.14506386e-01,
          2.43986353e-01, 9.90930945e-02, 8.83493759e-03, 7.45727718e-02,
          3.97808366e-02, 0., 5.75269535e-02, 1.55054614e-01,
          1.90602794e-01, 9.55620315e-03, 9.65036452e-03, 4.51884978e-03,
          9.50738341e-02, 9.38660204e-02, 0., 9.55066308e-02,
          2.56299108e-01, 6.75725611e-03, 6.82383822e-03, 0.,
          9.87452865e-02, 1.10704936e-01, 1.91287875e-01, 2.23848999e-01,
          1.61613613e-01, 0., 0., 6.32152483e-02, 1.06059134e-01,
          1.21479094e-01, 8.53234679e-02, 2.16388837e-01, 2.55709529e-01,
          0., 6.13617338e-03, 1.15651242e-01, 8.80275294e-03,
          7.55222961e-02, 1.44876078e-01, 1.91583440e-01, 2.66327232e-01,
          9.50743407e-02, 7.41988420e-02, 1.01880141e-01, 1.21731542e-01,
          0., 0., 0., 2.97587007e-01, 1.79277539e-01, 1.15307502e-01,
          1.35362029e-01, 5.08227153e-03, 1.73317418e-02, 0., 0. ]
      - [ 3.05570036e-01, 1.36979505e-01, 1.63374573e-01, 8.10173750e-02,
          3.58919962e-03, 1.96067709e-02, 4.90441993e-02, 1.56452879e-01,
          2.27849171e-01, 9.36662406e-02, 8.53523538e-02, 6.74411580e-02,
          1.11097982e-02, 0., 5.22758067e-03, 6.57425076e-02,
          3.02976966e-01, 5.22758067e-03, 0., 0., 1.11157283e-01,
          6.26892075e-02, 7.70906508e-02, 5.41974194e-02, 2.80808300e-01,
          7.39291543e-03, 0., 0., 3.58919962e-03, 1.66198537e-01,
          1.31911218e-01, 8.98171961e-02, 1.90324038e-01, 0., 0.,
          3.31905223e-02, 1.11906335e-01, 1.25702515e-01, 7.44895115e-02,
          2.16089264e-01, 2.53934294e-01, 7.98526127e-03, 0., 0.,
          1.20626301e-01, 0., 8.35399255e-02, 2.11105451e-01,
          2.71247059e-01, 7.26446584e-02, 9.49009657e-02, 1.35043204e-01,
          0., 0., 0., 0., 3.22557539e-01, 1.49426863e-01, 1.01651952e-01,
          7.07811937e-02, 0., 0., 2.13436410e-02, 6.73428699e-02 ]
      - [ 3.43301147e-01, 1.08918928e-01, 1.02183610e-01, 0.,
          6.25990797e-03, 0., 8.80046468e-03, 0., 2.85938799e-01,
          7.87352696e-02, 1.26756117e-01, 4.61266451e-02, 1.05871670e-02,
          5.40442904e-03, 8.59596860e-03, 4.54456499e-03, 2.82745004e-01,
          9.61058494e-03, 7.64301699e-03, 0., 5.99744283e-02,
          8.75905752e-02, 1.44974738e-01, 1.55136690e-01, 1.99961573e-01,
          7.44432677e-03, 0., 4.54456499e-03, 6.72657713e-02,
          1.12047903e-01, 1.79615706e-01, 1.32701203e-01, 1.89838424e-01,
          0., 0., 0., 0., 0., 1.15930095e-01, 2.04479307e-01,
          2.78043807e-01, 1.77857652e-02, 1.91151798e-02, 1.14424244e-01,
          9.45672244e-02, 1.03094906e-01, 6.93710819e-02, 2.21018359e-01,
          2.14490324e-01, 1.52142823e-01, 7.75428414e-02, 1.01550661e-01,
          1.14649355e-01, 1.38874166e-02, 2.74960641e-02, 0.,
          3.14334482e-01, 1.50427938e-01, 1.03519425e-01, 1.05103880e-01,
          0., 0., 0., 1.07211612e-01 ]
      - [ 2.70509094e-01, 1.28188774e-01, 1.33960947e-01, 1.04195029e-02,
          1.02033829e-02, 0., 6.96794130e-03, 1.15298703e-01,
          2.51428634e-01, 1.00730136e-01, 8.50428566e-02, 5.86534925e-02,
          7.93165341e-03, 3.68727595e-02, 7.87418336e-03, 2.04858691e-01,
          2.99858093e-01, 7.63299735e-03, 1.40877683e-02, 5.91705088e-03,
          6.01429529e-02, 9.46536139e-02, 1.01034209e-01, 1.47868067e-01,
          2.35538393e-01, 1.08674318e-02, 0., 9.59054846e-03,
          1.51428198e-02, 2.11746525e-02, 1.03931308e-01, 2.00582072e-01,
          2.34669909e-01, 0., 0., 8.59956443e-03, 0., 1.39159530e-01,
          1.35401756e-01, 2.47527540e-01, 2.29177639e-01, 1.58653315e-02,
          0., 0., 1.18384719e-01, 9.27474201e-02, 1.01010926e-01,
          1.40519872e-01, 1.58534661e-01, 4.96760458e-02, 8.84808823e-02,
          1.21721312e-01, 1.17983013e-01, 0., 3.85720097e-02,
          1.71430618e-01, 3.17998171e-01, 3.39603759e-02, 0., 0., 0.,
          5.20609617e-02, 5.72234169e-02, 2.15387136e-01 ]
      - [ 3.25780332e-01, 1.43960163e-01, 1.41355038e-01, 0.,
          7.33435666e-03, 0., 0., 1.83560736e-02, 2.58569479e-01,
          1.09954551e-01, 7.04841986e-02, 1.14645906e-01, 1.14282994e-02,
          0., 0., 6.16547167e-02, 2.79742718e-01, 1.74492467e-02,
          6.96334383e-03, 1.00541208e-02, 1.22818619e-01, 7.97985643e-02,
          9.81336981e-02, 7.58694932e-02, 2.59135365e-01, 2.74456628e-02,
          1.55902989e-02, 0., 1.51201636e-02, 8.97081271e-02,
          1.21744417e-01, 2.04651073e-01, 2.58021235e-01, 2.12272592e-02,
          0., 1.32417148e-02, 9.36330669e-03, 1.44579440e-01,
          1.50843993e-01, 2.27602735e-01, 2.34366983e-01, 6.89540105e-03,
          0., 1.16089113e-01, 3.11435983e-02, 7.57374465e-02,
          9.74961668e-02, 7.50204027e-02, 1.61088675e-01, 7.75864944e-02,
          1.03703335e-01, 1.42184734e-01, 3.88964899e-02, 0., 0.,
          3.79481763e-02, 3.26277494e-01, 1.73978627e-01, 4.59581502e-02,
          0., 0., 2.21251380e-02, 4.43990268e-02, 2.07052022e-01 ]
      - [ 1.94282055e-01, 1.88706383e-01, 9.99609232e-02, 0.,
          7.28442380e-03, 0., 8.75010807e-03, 2.52061188e-01,
          7.65874237e-02, 1.31549537e-01, 9.33269039e-02, 7.76938125e-02,
          1.13937289e-01, 1.68888401e-02, 3.03133484e-02, 2.26521417e-01,
          1.15119249e-01, 6.95870444e-03, 6.21899124e-03, 0.,
          8.30861405e-02, 1.17283076e-01, 1.04081661e-01, 3.07802558e-01,
          8.88430998e-02, 6.12544594e-03, 6.91593718e-03, 0.,
          5.15086530e-03, 0., 6.12544594e-03, 3.42064798e-01,
          7.25252777e-02, 1.82401277e-02, 0., 0., 0., 1.08910695e-01,
          1.71024576e-01, 2.59646475e-01, 1.60720110e-01, 5.30479196e-03,
          3.66422907e-02, 2.21283659e-02, 7.69314393e-02, 1.05197862e-01,
          9.34778228e-02, 2.60596305e-01, 1.70596883e-01, 1.07958876e-01,
          0., 7.25072771e-02, 0., 3.98376845e-02, 1.01137385e-01,
          2.28891000e-01, 1.76034361e-01, 1.83221892e-01, 0., 0.,
          3.87267247e-02, 8.79498199e-03, 4.33134427e-03, 2.70419091e-01 ]
      - [ 1.92571133e-01, 1.30729184e-01, 1.34461701e-01, 7.16471951e-03,
          8.64296220e-03, 5.27630001e-03, 0., 2.18606532e-01,
          1.22280277e-01, 1.60907954e-01, 6.85314834e-02, 1.10743560e-01,
          1.11385539e-01, 0., 1.04352375e-02, 2.50257641e-01,
          1.21743850e-01, 8.39201510e-02, 2.91842446e-02, 8.93171728e-02,
          1.14777751e-01, 1.14052281e-01, 8.24645534e-02, 2.44029269e-01,
          1.22687444e-01, 8.94207787e-03, 0., 0., 6.64769625e-03,
          1.22817345e-01, 1.03835456e-01, 3.16017538e-01, 6.71819299e-02,
          0., 0., 0., 1.27821900e-02, 1.21218801e-01, 1.60470158e-01,
          2.79551446e-01, 1.30246982e-01, 6.74140081e-03, 1.68211069e-02,
          4.43682168e-03, 1.10859379e-01, 1.15380928e-01, 1.03785090e-01,
          2.61356771e-01, 1.32620856e-01, 8.71249363e-02, 7.78264999e-02,
          1.36759743e-01, 5.21576330e-02, 5.61717637e-02, 5.27630001e-03,
          2.23278701e-01, 2.31504515e-01, 1.70084789e-01, 0.,
          1.85080618e-02, 4.09576297e-02, 6.02478720e-03, 0.,
          2.17207834e-01 ]
      - [ 3.24510396e-01, 9.40825418e-02, 9.47964117e-02, 1.00612111e-01,
          1.26292938e-02, 3.43592986e-02, 5.42393699e-03, 1.18129559e-01,
          2.33970493e-01, 9.27745625e-02, 9.63725969e-02, 8.49474594e-02,
          1.15980156e-01, 0., 2.79353652e-02, 1.13856912e-01,
          2.57617503e-01, 3.29247825e-02, 2.94217840e-02, 0.,
          1.15628362e-01, 1.03361830e-01, 8.70633572e-02, 2.22180530e-01,
          1.63181454e-01, 4.31349827e-03, 0., 0., 7.25441054e-03,
          1.46499380e-01, 1.36702180e-01, 1.95351705e-01, 1.98018029e-01,
          3.05010378e-03, 7.07805809e-03, 0., 7.03959763e-02,
          1.35262683e-01, 1.69267148e-01, 8.00286606e-02, 2.99454540e-01,
          2.07252279e-02, 0., 0., 0., 1.55583456e-01, 9.63026285e-02,
          1.33775339e-01, 1.69885695e-01, 1.58410624e-01, 1.44418299e-01,
          0., 0., 0., 3.14034596e-02, 1.63697422e-01, 2.89970130e-01,
          1.00645386e-01, 1.59848422e-01, 0., 0., 0., 1.28257483e-01,
          1.10313140e-01 ]
      - [ 3.09696466e-01, 1.28863350e-01, 0., 4.41176770e-03,
          4.79786955e-02, 0., 5.13794608e-02, 1.52347401e-01,
          2.27406159e-01, 1.51075318e-01, 1.18023410e-01, 1.42347649e-01,
          0., 0., 7.89579190e-03, 4.41176770e-03, 2.27790922e-01,
          4.17239219e-03, 5.24650561e-03, 1.11971013e-01, 1.32088318e-01,
          9.21595693e-02, 1.05610266e-01, 1.49324715e-01, 2.23224506e-01,
          1.12737510e-02, 0., 4.41176770e-03, 5.53785041e-02,
          1.73733562e-01, 1.48860812e-01, 1.47241846e-01, 2.54969180e-01,
          1.44797014e-02, 0., 0., 1.26502560e-02, 0., 1.31762654e-01,
          1.10177115e-01, 3.14885527e-01, 1.34816095e-02, 0., 0.,
          1.02530010e-01, 1.37176946e-01, 1.12180650e-01, 1.32834002e-01,
          2.18949825e-01, 1.71716973e-01, 1.33016005e-01, 6.29843101e-02,
          1.38352169e-02, 3.62546220e-02, 0., 1.57872677e-01,
          2.69288093e-01, 1.09092429e-01, 1.71072483e-01, 7.94712529e-02,
          1.45350024e-02, 8.47996864e-03, 0., 0. ]
      - [ 3.22315753e-01, 1.60299852e-01, 1.15663327e-01, 6.57880213e-03,
          9.06196702e-03, 0., 4.39951010e-03, 1.68621726e-02,
          2.79048949e-01, 1.00273713e-01, 1.13545418e-01, 1.15846008e-01,
          6.40777824e-03, 6.31686440e-03, 4.39951010e-03, 0.,
          2.62710005e-01, 1.58225428e-02, 1.93279553e-02, 1.14551820e-01,
          6.40777824e-03, 1.13375932e-01, 1.26491100e-01, 1.03460230e-01,
          2.60345787e-01, 0., 0., 6.57880213e-03, 3.69953248e-03,
          8.93339515e-03, 2.04830155e-01, 1.66000381e-01, 1.30677581e-01,
          1.31001621e-01, 4.66200709e-02, 0., 0., 7.78910443e-02,
          1.31117985e-01, 1.56546280e-01, 2.80992091e-01, 4.01567779e-02,
          2.30769441e-02, 0., 9.40180197e-02, 1.00001395e-01,
          1.87124446e-01, 1.04115024e-01, 2.81360000e-01, 1.32560849e-01,
          1.10898562e-01, 0., 0., 0., 3.60548235e-02, 1.72421575e-01,
          2.96423823e-01, 1.56774983e-01, 0., 0., 0., 0., 0., 0. ]
      - [ 3.52359951e-01, 1.14148811e-01, 7.05683883e-03, 1.12906098e-02,
          1.29608000e-02, 6.48977682e-02, 1.01836264e-01, 7.17206523e-02,
          2.06187621e-01, 1.70979753e-01, 9.00137872e-02, 1.16373867e-01,
          1.41758313e-02, 6.34569302e-03, 7.10047688e-03, 7.55324308e-03,
          2.62366354e-01, 8.26829299e-03, 1.60286743e-02, 4.67314618e-03,
          1.14892051e-01, 8.17056596e-02, 1.50046587e-01, 1.34999260e-01,
          2.09310353e-01, 1.48523934e-02, 0., 5.40790260e-02,
          5.62661327e-02, 1.17292933e-01, 1.13774359e-01, 2.21736059e-01,
          2.01873794e-01, 0., 5.55733871e-03, 0., 1.01694420e-01,
          7.62557238e-02, 1.22645445e-01, 2.29053423e-01, 2.53488839e-01,
          3.12512112e-03, 0., 0., 9.03265253e-02, 1.08156078e-01,
          1.11580156e-01, 1.55631393e-01, 2.55112439e-01, 1.27880678e-01,
          1.07629016e-01, 4.08146493e-02, 0., 0., 4.87403758e-02,
          1.14441670e-01, 2.85830915e-01, 1.79859534e-01, 1.15444340e-01,
          1.02146298e-01, 0., 0., 0., 0. ]
      - [ 2.45146260e-01, 1.67992100e-01, 1.16015792e-01, 1.10762179e-01,
          8.64361599e-03, 2.50042044e-02, 2.04303771e-01, 4.43715742e-03,
          1.13455608e-01, 1.51353121e-01, 1.14057362e-01, 1.10775903e-01,
          9.33617260e-03, 0., 5.13952458e-03, 1.77923366e-01,
          2.63289481e-01, 0., 0., 0., 1.20762317e-02, 1.37362853e-01,
          1.48950562e-01, 1.43137708e-01, 1.58935666e-01, 1.18572332e-01,
          3.12650613e-02, 0., 9.33617260e-03, 1.67867944e-01,
          1.39230847e-01, 1.58131853e-01, 1.72241747e-01, 5.13952458e-03,
          0., 0., 1.17035117e-02, 1.50970235e-01, 2.07403123e-01,
          1.88302308e-01, 2.08719730e-01, 8.00918881e-03, 0.,
          1.12367727e-01, 1.11563183e-01, 1.11147322e-01, 1.05829053e-01,
          1.69196248e-01, 1.82498932e-01, 1.08894318e-01, 1.59558430e-01,
          1.12020336e-01, 1.05862245e-02, 7.31834304e-03, 5.93461189e-03,
          1.38160378e-01, 2.80997187e-01, 1.50865451e-01, 1.37060925e-01,
          0., 8.64361599e-03, 5.27669908e-03, 2.96730595e-03,
          1.77883327e-01 ]
      - [ 3.24543744e-01, 1.77582428e-01, 6.92817988e-03, 0.,
          1.21012339e-02, 0., 1.11501232e-01, 1.71054259e-01,
          1.20668635e-01, 1.72324285e-01, 7.48852044e-02, 1.20559476e-01,
          1.03199668e-02, 6.92817988e-03, 5.31418202e-03, 4.80047651e-02,
          2.84557283e-01, 8.11754726e-03, 0., 0., 8.92391503e-02,
          1.02721266e-01, 2.03639641e-01, 1.19742360e-02, 1.81246266e-01,
          9.76372883e-02, 9.31602344e-03, 0., 9.65344533e-03,
          1.24646075e-01, 1.78492293e-01, 1.37708962e-01, 2.54161358e-01,
          1.04967775e-02, 0., 0., 2.15723123e-02, 2.48123147e-02,
          1.84748560e-01, 2.26754203e-01, 2.31803566e-01, 8.17476027e-03,
          6.22999994e-03, 1.05449021e-01, 1.28540590e-01, 7.19832480e-02,
          8.94319415e-02, 7.79706538e-02, 2.59357661e-01, 9.36851501e-02,
          1.21567354e-01, 1.21398181e-01, 6.31966349e-03, 0.,
          7.11992336e-03, 5.82588185e-03, 3.05769593e-01, 2.11683273e-01,
          8.98156166e-02, 7.94655643e-03, 8.15865025e-03, 0.,
          3.06814443e-03, 0. ]
      - [ 2.62375623e-01, 1.67315334e-01, 6.74577896e-03, 4.46715765e-03,
          9.48158558e-03, 0., 6.67995866e-03, 2.51017392e-01,
          7.33922273e-02, 1.60031661e-01, 9.96566117e-02, 1.13052025e-01,
          1.47869065e-02, 0., 1.22337490e-02, 1.78271621e-01,
          2.16956005e-01, 4.34294902e-02, 9.28775147e-02, 4.46715765e-03,
          7.57373497e-02, 8.05288255e-02, 1.20373458e-01, 2.52980858e-01,
          1.78960115e-01, 4.22477676e-03, 0., 0., 6.14784919e-02,
          2.94346660e-02, 1.13552026e-01, 2.67213881e-01, 1.22050747e-01,
          0., 0., 0., 0., 8.11607465e-02, 1.60566017e-01, 2.68194675e-01,
          1.61468253e-01, 6.76169246e-03, 0., 0., 5.95452860e-02,
          1.21682659e-01, 8.56703743e-02, 2.52751410e-01, 1.68625191e-01,
          1.10532254e-01, 1.08852156e-01, 0., 8.76717120e-02, 0.,
          1.28638102e-02, 2.39804238e-01, 2.32250586e-01, 1.28927499e-01,
          3.73049341e-02, 0., 0., 7.88833275e-02, 0., 2.32110471e-01 ]
      - [ 2.04616547e-01, 1.60723880e-01, 1.07157208e-01, 0.,
          1.18026417e-02, 6.07627770e-03, 5.98487910e-03, 2.47521162e-01,
          1.08906880e-01, 9.77989584e-02, 1.30367696e-01, 9.74308625e-02,
          1.14197902e-01, 0., 1.08712651e-02, 2.29605645e-01,
          1.61229134e-01, 6.18370771e-02, 8.53138715e-02, 1.14928134e-01,
          6.85346872e-02, 1.33826450e-01, 9.49079320e-02, 2.09868282e-01,
          1.66192830e-01, 0., 0., 0., 0., 1.24002151e-01, 1.40376955e-01,
          2.86703050e-01, 1.28497630e-02, 0., 0., 0., 0., 7.06914514e-02,
          1.67998448e-01, 2.92372406e-01, 1.19757414e-01, 0., 0.,
          2.28167903e-02, 9.60381478e-02, 9.50462818e-02, 8.16847309e-02,
          2.84070820e-01, 1.46668375e-01, 8.35632533e-02, 9.18927863e-02,
          7.98564702e-02, 5.69522008e-02, 7.54666403e-02, 2.99243955e-03,
          1.79379240e-01, 2.83649236e-01, 1.36802584e-01, 7.29929060e-02,
          4.47474094e-03, 2.42376048e-02, 0., 4.41677049e-02,
          2.09348723e-01 ]
      - [ 2.15392068e-01, 1.50838912e-01, 0., 2.19198707e-02,
          1.17814690e-02, 0., 5.93055738e-03, 2.70943314e-01,
          8.17110613e-02, 9.44244489e-02, 1.07659288e-01, 1.46411091e-01,
          7.88511522e-03, 2.48862393e-02, 1.03280634e-01, 2.21731409e-01,
          1.12543613e-01, 4.56835032e-02, 7.88511522e-03, 0.,
          1.41138390e-01, 1.43728837e-01, 4.04801518e-02, 2.18033955e-01,
          1.52978271e-01, 5.13601350e-03, 0., 4.43412596e-03,
          9.04635340e-03, 1.19135104e-01, 1.01638332e-01, 2.98811913e-01,
          2.59444602e-02, 6.69589872e-03, 7.45728146e-03, 7.50345876e-03,
          6.75143823e-02, 1.20379969e-01, 1.29292384e-01, 2.23640338e-01,
          2.12610841e-01, 8.03918615e-02, 0., 0., 1.21294230e-01,
          1.25464842e-01, 9.08999965e-02, 2.83142656e-01, 6.10778388e-03,
          1.47435829e-01, 1.19386889e-01, 0., 1.12484373e-01,
          3.99208963e-02, 1.03428334e-01, 1.81966662e-01, 2.25525200e-01,
          1.46080494e-01, 1.25550076e-01, 5.37634082e-02, 1.44156590e-02,
          4.50395904e-02, 2.68646348e-02, 2.46340841e-01 ]
      - [ 3.34557563e-01, 1.24941938e-01, 0., 4.49389312e-03,
          7.14772334e-03, 0., 3.63513753e-02, 1.66727453e-01,
          2.41949722e-01, 1.06973238e-01, 6.47105947e-02, 1.57755077e-01,
          6.19011000e-03, 1.58615522e-02, 8.54397845e-03, 4.13900949e-02,
          2.53672361e-01, 1.39479302e-02, 1.14774695e-02, 1.13605700e-01,
          1.13015426e-02, 1.47281691e-01, 8.25737119e-02, 1.55148640e-01,
          2.11163387e-01, 1.99226215e-02, 5.34416968e-03, 0.,
          6.48698658e-02, 9.57750753e-02, 2.29714274e-01, 1.14018537e-01,
          2.79293478e-01, 1.30904894e-02, 0., 0., 0., 0., 2.93777417e-02,
          1.94137678e-01, 3.02861452e-01, 7.36132264e-03, 0., 0.,
          1.11175664e-01, 1.06107838e-01, 7.03185722e-02, 1.08693443e-01,
          2.58119315e-01, 1.15011603e-01, 1.14165522e-01, 0., 0., 0.,
          3.22985984e-02, 1.57303542e-01, 2.76499122e-01, 1.12563886e-01,
          1.76060244e-01, 0., 0., 0., 0., 0. ]
      - [ 3.24484587e-01, 1.16815180e-01, 8.24742019e-02, 0.,
          1.30958604e-02, 5.75441122e-03, 5.75441122e-03, 1.25538325e-02,
          2.59234279e-01, 1.01671390e-01, 8.75264183e-02, 5.40089868e-02,
          1.23057663e-01, 5.75441122e-03, 4.57631471e-03, 1.12792283e-01,
          2.73302585e-01, 1.41784688e-02, 0., 1.21985823e-01,
          2.40512732e-02, 1.08489387e-01, 1.02508165e-01, 8.26532096e-02,
          2.46459231e-01, 6.60186168e-03, 0., 0., 0., 6.78111836e-02,
          1.20411880e-01, 2.05908388e-01, 2.72118628e-01, 0., 0., 0., 0.,
          8.66320282e-02, 1.85643300e-01, 1.85884625e-01, 2.83451080e-01,
          1.62299555e-02, 0., 0., 0., 9.46470574e-02, 1.03798114e-01,
          7.90644139e-02, 2.82723933e-01, 1.02018394e-01, 9.99751613e-02,
          0., 0., 0., 1.12557905e-02, 0., 3.39757025e-01, 1.92306384e-01,
          7.76106790e-02, 0., 0., 0., 4.57631471e-03, 0. ]
      - [ 2.20192477e-01, 2.23509952e-01, 8.57647657e-02, 5.80873946e-03,
          7.27584679e-03, 0., 2.39117052e-02, 1.15193494e-01,
          2.21305668e-01, 1.35824919e-01, 1.36979505e-01, 1.16852716e-01,
          3.63792339e-03, 4.24292907e-02, 5.76467514e-02, 1.87693894e-01,
          3.06351423e-01, 3.00290827e-02, 1.53199984e-02, 1.14318661e-01,
          1.35681391e-01, 9.63294879e-02, 8.17383081e-02, 1.84886619e-01,
          1.82272136e-01, 4.32624435e-03, 0., 8.21479782e-03,
          1.31824650e-02, 6.25031888e-02, 1.72751978e-01, 1.19353108e-01,
          2.00245753e-01, 1.50136240e-02, 0., 0., 0., 1.31741732e-01,
          1.87637314e-01, 2.22456992e-01, 2.22499594e-01, 0., 0., 0.,
          5.57127520e-02, 9.30257887e-02, 1.46696046e-01, 1.57216206e-01,
          2.28350729e-01, 1.50715247e-01, 9.48367715e-02, 7.04052970e-02,
          0., 0., 6.24110643e-03, 0., 3.21808368e-01, 1.98290005e-01,
          1.93773434e-02, 0., 0., 0., 0., 0. ]
      - [ 3.32279056e-01, 1.30658910e-01, 8.19714963e-02, 0.,
          5.12019359e-03, 0., 4.30555269e-03, 8.05242732e-02,
          2.54229784e-01, 9.85769778e-02, 1.03338912e-01, 1.00635283e-01,
          1.33911222e-02, 0., 6.08897069e-03, 8.09027553e-02,
          2.95254976e-01, 0., 7.65647553e-03, 0., 1.37036085e-01,
          9.50802043e-02, 3.04448535e-03, 1.08333550e-01, 2.71662027e-01,
          8.61110538e-03, 6.87475502e-03, 0., 8.86843540e-03,
          4.13342603e-02, 1.25589207e-01, 1.77857876e-01, 2.16506943e-01,
          9.24418494e-03, 0., 0., 0., 1.85388938e-01, 1.59846455e-01,
          1.04905970e-01, 2.78769404e-01, 6.31742850e-02, 0., 0.,
          1.15258276e-01, 9.12192538e-02, 9.37693566e-02, 1.56963632e-01,
          2.91924030e-01, 9.45279598e-02, 0., 1.35440603e-01, 0., 0.,
          4.30555269e-03, 8.17637295e-02, 3.24534416e-01, 1.11271009e-01,
          1.26047909e-01, 0., 0., 0., 4.30555269e-03, 0. ]
      - [ 3.52849901e-01, 1.42726764e-01, 5.67865744e-03, 7.71813327e-03,
          6.13515824e-02, 3.73686627e-02, 6.19947948e-02, 1.80301189e-01,
          1.79348081e-01, 1.78546309e-01, 7.56880194e-02, 5.09553701e-02,
          1.10020190e-01, 0., 9.03213955e-03, 6.75309962e-03,
          2.67694205e-01, 2.79541854e-02, 0., 4.64738682e-02,
          1.11498296e-01, 1.11419596e-01, 1.15060247e-01, 1.38839468e-01,
          2.13758692e-01, 9.58003104e-03, 2.36432292e-02, 5.44873811e-02,
          1.07410848e-02, 1.34190813e-01, 1.51790723e-01, 2.01107517e-01,
          1.85552761e-01, 0., 0., 0., 1.03689089e-01, 8.38623568e-02,
          1.06227227e-01, 2.26277292e-01, 2.46004298e-01, 0.,
          3.83057930e-02, 0., 0., 1.06343627e-01, 1.11090057e-01,
          1.83379188e-01, 2.25639641e-01, 1.56095907e-01, 6.94652349e-02,
          0., 4.77516232e-03, 0., 1.75265130e-02, 1.63005263e-01,
          3.07137489e-01, 1.25207856e-01, 8.49157292e-03, 1.03597105e-01,
          0., 0., 0., 6.52266964e-02 ]
      - [ 2.91322410e-01, 1.16877444e-01, 9.62963551e-02, 1.11036701e-02,
          1.26608871e-02, 8.83364864e-03, 3.07337823e-03, 2.00866595e-01,
          1.96711406e-01, 9.75359976e-02, 7.43201822e-02, 1.11242950e-01,
          1.65545680e-02, 5.46532543e-03, 9.54962298e-02, 1.60261765e-01,
          1.96694791e-01, 5.50397523e-02, 6.24062726e-03, 4.59577236e-03,
          4.45430651e-02, 1.10684544e-01, 1.26687348e-01, 2.09101513e-01,
          1.42517209e-01, 6.14675647e-03, 8.98533128e-03, 4.59577236e-03,
          6.94575384e-02, 9.30490196e-02, 1.60942674e-01, 2.55410850e-01,
          0., 0., 0., 0., 6.62254915e-02, 4.58516516e-02, 1.06973581e-01,
          3.11823159e-01, 1.65079027e-01, 7.59007409e-03, 0., 0.,
          1.10995628e-01, 1.11163668e-01, 1.13342367e-01, 2.68032581e-01,
          1.75930828e-01, 1.64259136e-01, 7.49334767e-02, 1.19462557e-01,
          5.87190734e-03, 0., 9.22013447e-03, 2.46812478e-01,
          2.14386255e-01, 1.43153220e-01, 1.13979392e-01, 1.02312386e-01,
          0., 0., 9.96264592e-02, 1.37385249e-01 ]
      - [ 2.60258526e-01, 1.50497019e-01, 1.05856605e-01, 0.,
          1.06806653e-02, 8.04496277e-03, 9.31921322e-03, 1.55291170e-01,
          2.10402295e-01, 1.10299818e-01, 1.18337847e-01, 1.05951622e-01,
          5.68776280e-02, 0., 8.72969627e-03, 1.81618646e-01,
          3.03761125e-01, 8.09737388e-03, 2.86341067e-02, 6.19383203e-03,
          1.20422348e-01, 1.22202903e-01, 9.78806168e-02, 1.03255861e-01,
          2.77666569e-01, 0., 0., 0., 3.87910102e-03, 0., 9.43417624e-02,
          1.57788411e-01, 1.65466323e-01, 0., 0., 0., 5.89351207e-02,
          9.02597457e-02, 1.61196724e-01, 2.18819290e-01, 2.26990938e-01,
          9.22610890e-03, 0., 4.76859920e-02, 7.87668210e-03,
          1.91985473e-01, 9.45668444e-02, 1.80848554e-01, 2.69389778e-01,
          1.57015994e-01, 1.67664513e-01, 0., 0., 0., 4.61305445e-03,
          1.17989227e-01, 3.27366710e-01, 9.96317863e-02, 0.,
          2.43101344e-02, 0., 0., 0., 0. ]
      - [ 2.49443442e-01, 1.27235964e-01, 1.26306206e-01, 6.42298386e-02,
          1.06430724e-02, 0., 9.43383481e-03, 1.13142110e-01,
          2.51181483e-01, 6.57581240e-02, 1.18053906e-01, 1.43661201e-01,
          9.76816565e-03, 0., 1.08231530e-02, 2.00832516e-01,
          2.25248829e-01, 0., 3.80906910e-02, 1.06995381e-01,
          7.42658377e-02, 7.70219862e-02, 1.56694144e-01, 1.71185270e-01,
          2.09473357e-01, 1.12344986e-02, 7.93287810e-03, 4.46098531e-03,
          7.58326501e-02, 8.06446671e-02, 1.04103848e-01, 2.33623341e-01,
          1.59201577e-01, 9.54926480e-03, 0., 0., 5.45706414e-02,
          1.78947479e-01, 1.29169956e-01, 1.66627139e-01, 2.48679832e-01,
          6.05759863e-03, 3.20784226e-02, 0., 1.03673711e-01,
          7.36209899e-02, 1.10776313e-01, 2.21982256e-01, 1.73378572e-01,
          1.81261525e-01, 1.00222804e-01, 7.42194057e-02, 0., 0.,
          5.16712433e-03, 1.95436999e-01, 2.45914817e-01, 1.77951559e-01,
          3.70681733e-02, 0., 0., 0., 1.25827506e-01, 1.54012859e-01 ]
      - [ 3.51727009e-01, 1.15175374e-01, 7.26447329e-02, 4.72736731e-03,
          1.07108355e-02, 0., 0., 6.68550702e-03, 2.75565565e-01,
          9.77367982e-02, 7.50701949e-02, 1.24182403e-01, 1.13798371e-02,
          1.90416854e-02, 7.74377026e-03, 6.29652739e-02, 2.98469841e-01,
          7.06906291e-03, 2.28894204e-02, 1.13265269e-01, 3.38615328e-02,
          9.61695388e-02, 8.54569301e-02, 1.38903648e-01, 2.37877443e-01,
          0., 0., 0., 8.01893417e-03, 1.30459694e-02, 1.81205198e-01,
          1.59040794e-01, 2.59898394e-01, 0., 0., 0., 0., 1.00365572e-01,
          1.67091459e-01, 1.88956812e-01, 2.78522462e-01, 0., 0., 0.,
          9.00992975e-02, 1.08481623e-01, 8.02833810e-02, 7.99535587e-02,
          2.52679974e-01, 9.01334584e-02, 1.20622061e-01, 0., 0., 0.,
          7.06906291e-03, 0., 3.61319751e-01, 1.28594533e-01, 0., 0., 0.,
          0., 0., 8.28813091e-02 ]
      - [ 2.94142306e-01, 1.27040029e-01, 4.35269699e-02, 0.,
          1.29622538e-02, 0., 1.01424120e-02, 1.19071171e-01,
          1.81242526e-01, 1.97056547e-01, 7.65525177e-02, 1.26254022e-01,
          1.07880691e-02, 0., 2.07596160e-02, 1.98534012e-01,
          2.96136767e-01, 2.83621512e-02, 4.35012542e-02, 1.19341262e-01,
          8.52871779e-03, 9.69313681e-02, 1.13439694e-01, 2.30035767e-01,
          1.08019695e-01, 7.17176823e-03, 0., 0., 7.62831699e-03,
          4.81994599e-02, 1.24208391e-01, 1.80543274e-01, 2.01206610e-01,
          0., 0., 0., 0., 1.12795278e-01, 1.80322111e-01, 2.34773591e-01,
          2.42811620e-01, 0., 0., 0., 4.03011516e-02, 7.92282298e-02,
          1.35023594e-01, 1.81305379e-01, 2.59040207e-01, 9.83979031e-02,
          1.15007818e-01, 0., 2.19907127e-02, 0., 5.55522786e-03,
          8.30700342e-03, 3.46382171e-01, 1.79076418e-01, 2.36063581e-02,
          0., 0., 0., 0., 5.94631396e-02 ]
      - [ 2.98851371e-01, 1.47909895e-01, 9.24891755e-02, 1.14522800e-01,
          1.02440203e-02, 0., 3.04556545e-03, 5.98428920e-02,
          2.48287916e-01, 8.58038217e-02, 9.50633362e-02, 8.36340263e-02,
          1.13821380e-01, 1.90693736e-02, 7.46008102e-03, 1.14600055e-01,
          2.95165092e-01, 1.56042464e-02, 0., 1.15815811e-01,
          6.89554140e-02, 9.59411561e-02, 1.06176846e-01, 1.00616425e-01,
          2.79684812e-01, 3.04556545e-03, 0., 0., 0., 0., 1.24600597e-01,
          1.75778449e-01, 1.97557434e-01, 0., 0., 0., 1.14846587e-01,
          8.36164355e-02, 1.39567032e-01, 2.36217812e-01, 2.26022437e-01,
          4.36803624e-02, 0., 0., 2.71042101e-02, 7.14174062e-02,
          1.93799034e-01, 8.37147906e-02, 2.89909810e-01, 9.44121554e-02,
          1.34946972e-01, 6.38513789e-02, 0., 0., 4.72199582e-02,
          1.96711421e-01, 2.83394933e-01, 1.29359633e-01, 0., 0., 0., 0.,
          0., 0. ]
      - [ 2.60258526e-01, 1.50497019e-01, 1.05856597e-01, 0.,
          1.06806653e-02, 8.04496277e-03, 9.31921322e-03, 1.55291170e-01,
          2.10402295e-01, 1.10299818e-01, 1.18337847e-01, 1.05951622e-01,
          5.68776280e-02, 0., 8.72969627e-03, 1.81618646e-01,
          3.03761125e-01, 8.09737388e-03, 2.86341049e-02, 6.19383203e-03,
          1.20422348e-01, 1.22202903e-01, 9.78806168e-02, 1.03255861e-01,
          2.77666569e-01, 0., 0., 0., 3.87910102e-03, 0., 9.43417624e-02,
          1.57788411e-01, 1.65466323e-01, 0., 0., 0., 5.89351207e-02,
          9.02597457e-02, 1.61196724e-01, 2.18819290e-01, 2.26990938e-01,
          9.22610890e-03, 0., 4.76859920e-02, 7.87668210e-03,
          1.91985473e-01, 9.45668519e-02, 1.80848554e-01, 2.69389778e-01,
          1.57016009e-01, 1.67664513e-01, 0., 0., 0., 4.61305445e-03,
          1.17989227e-01, 3.27366710e-01, 9.96317863e-02, 0.,
          2.43101344e-02, 0., 0., 0., 0. ]
      - [ 1.75830781e-01, 1.29714400e-01, 6.99959919e-02, 2.50419155e-02,
          9.50659532e-03, 0., 3.10667567e-02, 2.75041670e-01,
          1.12691075e-01, 6.28664717e-02, 8.65269452e-02, 1.17732979e-01,
          1.07983455e-01, 9.67905018e-03, 1.62126292e-02, 2.77745008e-01,
          1.06561869e-01, 4.23592050e-03, 0., 1.13989517e-01,
          6.37120456e-02, 1.16988629e-01, 1.08086862e-01, 2.60612637e-01,
          4.20281664e-02, 0., 7.96480849e-03, 4.93497513e-02,
          1.17075399e-01, 1.11008525e-01, 1.32221788e-01, 2.97790200e-01,
          3.12561654e-02, 0., 0., 0., 0., 0., 1.30294114e-01,
          3.16572547e-01, 1.17975987e-01, 0., 0., 0., 7.04209059e-02,
          9.29747075e-02, 1.04238518e-01, 2.96559185e-01, 1.11256488e-01,
          1.27859265e-01, 1.20839573e-01, 4.47894074e-03, 1.04116853e-02,
          0., 6.80539757e-03, 2.54177570e-01, 1.51234999e-01,
          1.51381031e-01, 1.57023877e-01, 1.00316495e-01, 9.50659532e-03,
          0., 0., 2.26901054e-01 ]
      - [ 2.23059162e-01, 1.85344219e-01, 1.52306408e-02, 0.,
          1.46371610e-02, 0., 1.47425264e-01, 1.84875861e-01,
          1.01684175e-01, 1.84964389e-01, 8.48907977e-02, 1.29115656e-01,
          7.21829711e-03, 9.21514165e-03, 1.56637635e-02, 2.16737494e-01,
          1.40687481e-01, 7.50988256e-03, 5.39693609e-03, 4.53826413e-03,
          8.71793404e-02, 1.07517995e-01, 1.56385243e-01, 1.85759202e-01,
          1.50664762e-01, 9.69145447e-02, 6.16253633e-03, 0.,
          1.20581640e-02, 8.59554633e-02, 1.86249554e-01, 2.76125759e-01,
          1.16205133e-01, 1.23202078e-01, 0., 0., 0., 6.18866012e-02,
          1.84406266e-01, 2.75364339e-01, 1.41126528e-01, 6.06984040e-03,
          0., 0., 1.20845705e-01, 8.09827670e-02, 1.03155755e-01,
          2.37662494e-01, 1.53513610e-01, 1.13619149e-01, 7.49063492e-02,
          1.12723619e-01, 0., 2.41025761e-02, 9.62116383e-03,
          2.15254098e-01, 2.25289658e-01, 1.76810279e-01, 8.62584859e-02,
          0., 0., 5.39693609e-03, 4.60673645e-02, 2.26123080e-01 ]
      - [ 2.98851371e-01, 1.47909895e-01, 9.24891755e-02, 1.14522800e-01,
          1.02440203e-02, 0., 3.04556545e-03, 5.98428920e-02,
          2.48287916e-01, 8.58038217e-02, 9.50633362e-02, 8.36340263e-02,
          1.13821380e-01, 1.90693717e-02, 7.46008102e-03, 1.14600055e-01,
          2.95165092e-01, 1.56042464e-02, 0., 1.15815811e-01,
          6.89554140e-02, 9.59411561e-02, 1.06176846e-01, 1.00616425e-01,
          2.79684812e-01, 3.04556545e-03, 0., 0., 0., 0., 1.24600589e-01,
          1.75778449e-01, 1.97557434e-01, 0., 0., 0., 1.14846587e-01,
          8.36164430e-02, 1.39567032e-01, 2.36217797e-01, 2.26022437e-01,
          4.36803624e-02, 0., 0., 2.71042101e-02, 7.14174062e-02,
          1.93799034e-01, 8.37147981e-02, 2.89909810e-01, 9.44121554e-02,
          1.34946972e-01, 6.38513789e-02, 0., 0., 4.72199582e-02,
          1.96711421e-01, 2.83394933e-01, 1.29359633e-01, 0., 0., 0., 0.,
          0., 0. ]
      - [ 2.56937176e-01, 1.62159652e-01, 1.23508841e-01, 8.86787772e-02,
          1.10321762e-02, 0., 0., 0., 2.78371781e-01, 9.23769847e-02,
          9.25209224e-02, 1.27240837e-01, 9.82964598e-03, 3.07677984e-02,
          3.39904018e-02, 1.59941673e-01, 2.86264360e-01, 1.17492909e-02,
          3.44389677e-02, 5.70031675e-03, 1.55699462e-01, 6.86954036e-02,
          1.06448829e-01, 1.08138353e-01, 2.50767618e-01, 9.95656382e-03,
          0., 0., 5.07274866e-02, 1.31245658e-01, 1.19255781e-01,
          1.35021597e-01, 2.23171011e-01, 0., 0., 0., 9.77634043e-02,
          1.54921278e-01, 1.40616655e-01, 1.34167522e-01, 2.59193927e-01,
          1.22910710e-02, 6.96646841e-03, 0., 1.03669874e-01,
          1.45710900e-01, 8.89915749e-02, 1.27458885e-01, 2.78502017e-01,
          9.14608240e-02, 9.41591561e-02, 1.27614975e-01, 4.49114852e-02,
          0., 0., 0., 3.20145518e-01, 1.26963958e-01, 1.21631406e-01,
          6.48062080e-02, 0., 0., 0., 0. ]
      - [ 2.46705011e-01, 2.01276183e-01, 7.61949494e-02, 4.20435853e-02,
          1.10450722e-02, 5.83937112e-03, 3.84370163e-02, 2.49041334e-01,
          1.09080695e-01, 1.13391526e-01, 9.59203988e-02, 1.32020503e-01,
          1.07520381e-02, 6.66773459e-03, 1.44766286e-01, 1.26183122e-01,
          2.01736316e-01, 4.60797064e-02, 1.06139155e-02, 3.83651406e-02,
          1.16962127e-01, 8.90864804e-02, 4.95276600e-02, 2.99152851e-01,
          6.76369807e-03, 1.00061269e-02, 6.66773459e-03, 0.,
          1.36185559e-02, 4.28565629e-02, 2.02910751e-01, 2.34848574e-01,
          1.63917542e-01, 0., 0., 0., 3.90502298e-03, 1.30690858e-01,
          1.16358399e-01, 2.89277613e-01, 1.56085581e-01, 4.64388076e-03,
          3.26859243e-02, 0., 1.09912127e-01, 1.00159846e-01,
          1.37898877e-01, 2.14288503e-01, 8.95233229e-02, 5.17789051e-02,
          2.29956061e-02, 1.29087120e-01, 1.57453254e-01, 6.43755943e-02,
          6.71108291e-02, 1.91685930e-01, 2.17777655e-01, 1.24407172e-01,
          6.16046861e-02, 6.94422191e-03, 0., 7.22206160e-02,
          9.92078483e-02, 2.21135572e-01 ]
      - [ 1.96084797e-01, 1.37613371e-01, 8.11373517e-02, 7.11426586e-02,
          3.45783420e-02, 0., 0., 2.69358158e-01, 1.22007094e-01,
          1.02328345e-01, 8.16754848e-02, 9.27671567e-02, 8.95710662e-02,
          0., 1.52054550e-02, 2.53796935e-01, 1.15216136e-01,
          6.78812340e-03, 5.39839594e-03, 5.76435309e-03, 1.33001745e-01,
          9.85358655e-02, 7.81364590e-02, 2.78610796e-01, 1.44405002e-02,
          5.39839594e-03, 5.39839594e-03, 0., 3.61012481e-03,
          1.39512509e-01, 1.12148605e-01, 3.05150926e-01, 0., 0., 0., 0.,
          9.81726050e-02, 1.06624976e-01, 1.11274958e-01, 3.09486061e-01,
          1.11829378e-01, 6.78812340e-03, 0., 0., 3.70463394e-02,
          1.27029598e-01, 8.35707113e-02, 2.87710547e-01, 1.11374602e-01,
          1.51803836e-01, 9.33855399e-02, 7.33161941e-02, 0., 0.,
          1.86952911e-02, 2.53429025e-01, 1.71185747e-01, 1.74521491e-01,
          1.39435738e-01, 1.02506299e-02, 0., 0., 0., 2.27037981e-01 ]
      - [ 1.78979576e-01, 1.89758062e-01, 3.69629376e-02, 0.,
          1.01350322e-02, 0., 8.60949885e-03, 2.19322249e-01,
          1.55953556e-01, 1.35710493e-01, 9.34828371e-02, 1.46608755e-01,
          1.50111876e-02, 6.18716981e-03, 4.59315665e-02, 2.65396237e-01,
          1.37581646e-01, 0., 8.07405170e-03, 1.02046933e-02,
          1.12442272e-02, 5.62153757e-02, 1.17319942e-01, 3.20547312e-01,
          1.08449586e-01, 0., 8.07405170e-03, 0., 1.14820553e-02,
          8.07405170e-03, 7.77995400e-03, 3.34482461e-01, 1.10724546e-01,
          0., 0., 0., 0., 3.41821499e-02, 1.46395102e-01, 3.04480165e-01,
          1.61946446e-01, 3.47930123e-03, 0., 0., 6.39579147e-02,
          1.57265842e-01, 9.25211012e-02, 2.50225842e-01, 1.13495849e-01,
          1.05480209e-01, 9.23689008e-02, 0., 4.61249426e-02,
          7.25876614e-02, 9.80931967e-02, 2.19711334e-01, 1.84052885e-01,
          9.05821100e-02, 0., 9.10743028e-02, 8.40159506e-03, 0.,
          9.43925008e-02, 2.50360578e-01 ]
      - [ 3.42162877e-01, 1.88078806e-01, 3.08195297e-02, 7.57509936e-03,
          1.09016625e-02, 9.00836196e-03, 0., 4.94181514e-02,
          2.85355866e-01, 1.30734265e-01, 1.11369640e-01, 5.10068238e-02,
          1.17043611e-02, 9.00836196e-03, 7.16408668e-03, 5.50715514e-02,
          1.92122608e-01, 5.47934361e-02, 7.46857002e-02, 8.85315388e-02,
          5.42978197e-02, 8.34484249e-02, 3.30440402e-02, 6.29177764e-02,
          2.19313145e-01, 1.09212466e-01, 7.27349380e-03, 9.59354937e-02,
          8.14304724e-02, 8.78451392e-02, 9.96828005e-02, 1.15820907e-01,
          2.76211113e-01, 0., 0., 0., 1.86388679e-02, 0., 1.39266029e-01,
          1.27144828e-01, 3.28569233e-01, 1.76389571e-02, 5.32608479e-02,
          1.28114209e-01, 1.37864426e-01, 1.10148206e-01, 8.67338330e-02,
          8.59702080e-02, 3.41436833e-01, 9.24374610e-02, 7.84590468e-02,
          0., 0., 3.56699377e-02, 5.06577408e-03, 0., 3.65170181e-01,
          1.01315491e-02, 0., 0., 0., 0., 0., 0. ]
      - [ 2.46705011e-01, 2.01276183e-01, 7.61949494e-02, 4.20435853e-02,
          1.10450722e-02, 5.83937112e-03, 3.84370163e-02, 2.49041334e-01,
          1.09080695e-01, 1.13391526e-01, 9.59203988e-02, 1.32020503e-01,
          1.07520381e-02, 6.66773459e-03, 1.44766286e-01, 1.26183122e-01,
          2.01736316e-01, 4.60797064e-02, 1.06139155e-02, 3.83651406e-02,
          1.16962127e-01, 8.90864804e-02, 4.95276600e-02, 2.99152851e-01,
          6.76369807e-03, 1.00061269e-02, 6.66773459e-03, 0.,
          1.36185549e-02, 4.28565629e-02, 2.02910751e-01, 2.34848574e-01,
          1.63917542e-01, 0., 0., 0., 3.90502298e-03, 1.30690858e-01,
          1.16358399e-01, 2.89277613e-01, 1.56085581e-01, 4.64388076e-03,
          3.26859243e-02, 0., 1.09912127e-01, 1.00159846e-01,
          1.37898877e-01, 2.14288503e-01, 8.95233229e-02, 5.17789014e-02,
          2.29956061e-02, 1.29087120e-01, 1.57453254e-01, 6.43755943e-02,
          6.71108291e-02, 1.91685930e-01, 2.17777655e-01, 1.24407172e-01,
          6.16046898e-02, 6.94422191e-03, 0., 7.22206160e-02,
          9.92078483e-02, 2.21135572e-01 ]
      - [ 1.78979576e-01, 1.89758062e-01, 3.69629376e-02, 0.,
          1.01350322e-02, 0., 8.60949885e-03, 2.19322249e-01,
          1.55953556e-01, 1.35710493e-01, 9.34828371e-02, 1.46608755e-01,
          1.50111876e-02, 6.18716981e-03, 4.59315665e-02, 2.65396237e-01,
          1.37581646e-01, 0., 8.07405170e-03, 1.02046933e-02,
          1.12442272e-02, 5.62153757e-02, 1.17319942e-01, 3.20547312e-01,
          1.08449586e-01, 0., 8.07405170e-03, 0., 1.14820553e-02,
          8.07405170e-03, 7.77995400e-03, 3.34482461e-01, 1.10724546e-01,
          0., 0., 0., 0., 3.41821499e-02, 1.46395102e-01, 3.04480165e-01,
          1.61946446e-01, 3.47930123e-03, 0., 0., 6.39579147e-02,
          1.57265842e-01, 9.25211012e-02, 2.50225842e-01, 1.13495849e-01,
          1.05480209e-01, 9.23689008e-02, 0., 4.61249426e-02,
          7.25876614e-02, 9.80931967e-02, 2.19711334e-01, 1.84052885e-01,
          9.05821100e-02, 0., 9.10743028e-02, 8.40159506e-03, 0.,
          9.43925008e-02, 2.50360578e-01 ]
      - [ 3.42162877e-01, 1.88078806e-01, 3.08195297e-02, 7.57509936e-03,
          1.09016625e-02, 9.00836196e-03, 0., 4.94181514e-02,
          2.85355866e-01, 1.30734265e-01, 1.11369640e-01, 5.10068238e-02,
          1.17043611e-02, 9.00836196e-03, 7.16408668e-03, 5.50715514e-02,
          1.92122608e-01, 5.47934361e-02, 7.46857002e-02, 8.85315388e-02,
          5.42978197e-02, 8.34484249e-02, 3.30440402e-02, 6.29177764e-02,
          2.19313145e-01, 1.09212466e-01, 7.27349380e-03, 9.59354937e-02,
          8.14304724e-02, 8.78451392e-02, 9.96828005e-02, 1.15820907e-01,
          2.76211113e-01, 0., 0., 0., 1.86388679e-02, 0., 1.39266029e-01,
          1.27144828e-01, 3.28569233e-01, 1.76389571e-02, 5.32608479e-02,
          1.28114209e-01, 1.37864426e-01, 1.10148206e-01, 8.67338330e-02,
          8.59702080e-02, 3.41436833e-01, 9.24374610e-02, 7.84590468e-02,
          0., 0., 3.56699377e-02, 5.06577408e-03, 0., 3.65170181e-01,
          1.01315491e-02, 0., 0., 0., 0., 0., 0. ]
      - [ 1.87582955e-01, 1.53384775e-01, 1.23813450e-01, 7.42530776e-03,
          1.04688080e-02, 5.21817338e-03, 2.53908746e-02, 2.71610349e-01,
          5.14026955e-02, 7.83236846e-02, 6.03512451e-02, 1.32469013e-01,
          7.96916112e-02, 2.42278595e-02, 9.86568332e-02, 2.31947035e-01,
          1.64588094e-01, 8.98308158e-02, 1.11284144e-01, 6.92592561e-02,
          1.06954202e-01, 1.29046142e-01, 1.12137191e-01, 2.08414212e-01,
          9.09675583e-02, 0., 5.21817338e-03, 0., 1.09472744e-01,
          1.69011593e-01, 1.70043156e-01, 1.81510761e-01, 4.93504340e-03,
          5.86878881e-03, 0., 4.38794307e-03, 6.60334527e-02,
          1.40608802e-01, 2.13986367e-01, 1.50910914e-01, 1.88919857e-01,
          1.27023295e-01, 3.67707349e-02, 1.11207411e-01, 7.37248585e-02,
          9.64109600e-02, 7.52649903e-02, 2.77215809e-01, 8.02153647e-02,
          1.05908774e-01, 1.00984670e-01, 1.08457193e-01, 1.09607905e-01,
          1.46778375e-02, 3.58269177e-02, 2.47432634e-01, 1.08053170e-01,
          1.11717813e-01, 1.74290329e-01, 1.88447595e-01, 7.30356947e-02,
          0., 3.93063724e-02, 1.92142293e-01 ]
      - [ 1.95082903e-01, 1.66030675e-01, 1.19621515e-01, 7.04442710e-02,
          2.15796567e-02, 0., 0., 2.11220473e-01, 1.33383155e-01,
          9.80521590e-02, 1.69157967e-01, 1.11815661e-01, 1.12299860e-01,
          7.30751548e-03, 2.90572667e-03, 2.11180672e-01, 1.10423021e-01,
          0., 4.14670035e-02, 1.03482597e-01, 1.13799796e-01,
          1.60168990e-01, 8.64322782e-02, 2.68331587e-01, 4.88683023e-03,
          0., 0., 0., 9.77366045e-03, 1.64587542e-01, 1.16794638e-01,
          2.76057512e-01, 1.38668139e-02, 5.81145333e-03, 0.,
          8.25844426e-03, 7.56206959e-02, 1.21972099e-01, 1.63947836e-01,
          2.67825216e-01, 1.14581004e-01, 0., 5.16719371e-03,
          7.52589060e-03, 1.31806377e-02, 1.94231898e-01, 1.00594945e-01,
          2.48150885e-01, 9.85706821e-02, 1.09802634e-01, 1.85044512e-01,
          7.37033263e-02, 5.98512031e-03, 2.96417177e-02, 8.34414735e-03,
          1.87016174e-01, 2.29140982e-01, 1.52768031e-01, 1.18645445e-01,
          7.11344182e-02, 1.15284910e-02, 6.74301712e-03, 7.16646807e-03,
          2.22601369e-01 ]
      - [ 3.07773560e-01, 1.03679508e-01, 1.03097625e-01, 0.,
          9.55206994e-03, 0., 7.63494661e-03, 0., 2.81924605e-01,
          9.32916328e-02, 7.77421147e-02, 1.60846695e-01, 5.10579627e-03,
          3.12548950e-02, 2.35237051e-02, 1.12832181e-01, 2.19348952e-01,
          6.07184926e-03, 1.77061576e-02, 1.64815020e-02, 1.07220128e-01,
          1.69915155e-01, 9.55363736e-02, 2.08185449e-01, 1.60191149e-01,
          2.55932473e-02, 0., 0., 9.23959445e-03, 1.05225168e-01,
          1.35818586e-01, 2.21386552e-01, 1.90763339e-01, 2.61498746e-02,
          5.39872237e-03, 6.78853411e-03, 8.84349830e-03, 8.12261328e-02,
          1.81642041e-01, 1.68685108e-01, 2.47283161e-01, 2.95700207e-02,
          0., 2.13917475e-02, 1.42515108e-01, 1.07405752e-01,
          1.14722654e-01, 1.88930154e-01, 2.35186264e-01, 1.00184932e-01,
          8.55745450e-02, 1.18816592e-01, 1.08651794e-01, 7.48757925e-03,
          1.80593282e-02, 1.59924597e-01, 2.88621098e-01, 7.04062805e-02,
          1.09821245e-01, 5.73566221e-02, 1.46872690e-02, 0.,
          5.83061129e-02, 1.50397390e-01 ]
      - [ 3.27317834e-01, 1.30175561e-01, 1.35873422e-01, 0.,
          6.32637087e-03, 0., 8.68723355e-03, 4.59281588e-03,
          2.60118186e-01, 1.31041735e-01, 1.28078282e-01, 9.02947262e-02,
          6.90192506e-02, 6.23661233e-03, 8.18343647e-03, 0.,
          2.94802040e-01, 4.00836319e-02, 0., 1.16008066e-01,
          1.15110427e-01, 7.57483914e-02, 1.04734525e-01, 1.11234412e-01,
          2.57381618e-01, 8.68723355e-03, 0., 0., 3.65253189e-03,
          1.08132593e-01, 1.42293036e-01, 1.43006459e-01, 2.59946167e-01,
          0., 0., 0., 0., 1.41326770e-01, 1.85749158e-01, 1.65048555e-01,
          2.51879811e-01, 1.41383298e-02, 0., 0., 3.00057307e-02,
          1.00533105e-01, 9.59689766e-02, 9.01813805e-02, 2.80841917e-01,
          1.11485980e-01, 6.86283559e-02, 2.74068322e-02, 0., 0.,
          3.07140104e-03, 0., 3.08014721e-01, 2.11105838e-01,
          5.03754169e-02, 0., 0., 0., 0., 0. ]
      - [ 3.12695146e-01, 1.29319057e-01, 9.52028930e-02, 0.,
          1.44740855e-02, 1.05308760e-02, 1.20879851e-01, 1.56716079e-01,
          1.50337726e-01, 1.34684920e-01, 1.60451055e-01, 1.38441235e-01,
          7.21788546e-03, 0., 1.11287367e-02, 3.04204840e-02,
          2.47900724e-01, 5.84367774e-02, 0., 0., 1.27437264e-01,
          1.19618922e-01, 1.23990476e-01, 1.00275941e-01, 2.43114904e-01,
          4.89965640e-02, 3.61618400e-02, 0., 3.05923428e-02,
          1.07866138e-01, 1.34451866e-01, 1.86661988e-01, 2.54317939e-01,
          6.06949395e-03, 5.39662829e-03, 0., 2.11989973e-02,
          1.07119381e-01, 1.51749879e-01, 1.75778285e-01, 2.54325390e-01,
          4.54367958e-02, 0., 0., 1.28093317e-01, 1.13595717e-01,
          1.44295663e-01, 7.62933567e-02, 1.86775163e-01, 1.07679516e-01,
          1.11521274e-01, 1.51318938e-01, 8.19527656e-02, 7.48467492e-03,
          5.39662829e-03, 2.88733039e-02, 3.16876560e-01, 1.16479568e-01,
          7.59934112e-02, 0., 5.76246530e-03, 6.85276510e-03,
          1.22538641e-01, 1.53119415e-01 ]
      - [ 2.44209632e-01, 2.16245770e-01, 4.24642414e-02, 7.99952354e-03,
          1.24687226e-02, 0., 8.21325108e-02, 1.52151078e-01,
          1.85143292e-01, 1.46778733e-01, 1.23784587e-01, 1.00200893e-02,
          3.79899479e-02, 2.72474717e-02, 3.63084972e-02, 1.41053498e-01,
          2.18443885e-01, 2.04004347e-02, 1.14151165e-02, 3.11529636e-02,
          1.10128084e-02, 1.12807080e-01, 1.40410259e-01, 1.07601158e-01,
          2.31162593e-01, 5.47556253e-03, 0., 4.72727232e-03,
          1.06789820e-01, 9.40944105e-02, 1.57593936e-01, 2.21818581e-01,
          2.57770270e-01, 6.32263534e-03, 0., 0., 9.20876209e-03,
          9.50476080e-02, 1.59433171e-01, 1.79424927e-01, 2.61279851e-01,
          1.87261719e-02, 9.08640865e-03, 1.17144063e-01, 9.48537588e-02,
          1.54126227e-01, 9.04773474e-02, 1.07822314e-01, 2.06307426e-01,
          4.86254394e-02, 1.36313155e-01, 1.39266327e-01, 1.11626290e-01,
          5.62170614e-03, 3.13249715e-02, 9.22097564e-02, 3.00335556e-01,
          1.15216956e-01, 1.32768780e-01, 0., 9.20876209e-03, 0.,
          9.12498683e-02, 1.52568653e-01 ]
      - [ 3.22503507e-01, 1.34666875e-01, 1.47640735e-01, 1.00201862e-02,
          1.12118088e-02, 0., 4.41247597e-03, 0., 2.66829789e-01,
          1.06849164e-01, 1.01485759e-01, 1.09153390e-01, 1.21438345e-02,
          5.54839522e-03, 0., 0., 2.42227316e-01, 0., 0., 5.92452055e-03,
          6.53911307e-02, 1.39287055e-01, 1.06030211e-01, 1.84118822e-01,
          1.91791177e-01, 8.35012458e-03, 0., 4.66562575e-03,
          2.42237467e-02, 1.16037115e-01, 1.61916316e-01, 1.77635521e-01,
          2.54241437e-01, 4.41247597e-03, 0., 0., 1.23965628e-02,
          1.15739837e-01, 1.79461375e-01, 1.64557636e-01, 2.51139432e-01,
          2.13296451e-02, 3.36175188e-02, 1.10316306e-01, 1.67727038e-01,
          1.36095732e-02, 8.85476023e-02, 1.06756024e-01, 1.89527899e-01,
          1.22445665e-01, 1.27531275e-01, 1.11043349e-01, 1.11946993e-01,
          2.97792852e-02, 0., 9.12304446e-02, 3.06256801e-01,
          1.51355818e-01, 0., 0., 6.42666267e-03, 0., 6.90047815e-02,
          1.73061237e-01 ]
      - [ 2.44713962e-01, 1.81892917e-01, 1.19113609e-01, 6.77250233e-03,
          8.05390812e-03, 0., 0., 1.81726724e-01, 1.91624969e-01,
          7.81587958e-02, 1.65094793e-01, 8.82479399e-02, 1.08054513e-02,
          1.07810693e-02, 4.28330619e-03, 1.80228725e-01, 2.80780077e-01,
          0., 2.18123905e-02, 1.05302753e-02, 7.42949098e-02,
          1.63151637e-01, 7.86340609e-02, 1.85608268e-01, 2.20258728e-01,
          9.65516455e-03, 0., 0., 8.18356127e-03, 8.52888748e-02,
          1.42116159e-01, 1.66202769e-01, 1.38602316e-01, 6.05751015e-03,
          0., 0., 6.23852992e-03, 8.26859027e-02, 1.60928383e-01,
          1.93164989e-01, 2.19787285e-01, 1.18634319e-02, 2.16275584e-02,
          1.14761770e-01, 1.14347100e-01, 1.46736145e-01, 1.20457083e-01,
          1.70386285e-01, 2.06592858e-01, 1.57588750e-01, 1.31674469e-01,
          1.32155821e-01, 1.32513260e-02, 9.19770822e-03, 4.43065241e-02,
          2.12319583e-01, 2.33916476e-01, 1.59750819e-01, 8.54154304e-02,
          6.77250233e-03, 8.05390812e-03, 0., 0., 1.62182361e-01 ]
      - [ 2.29906306e-01, 1.26437694e-01, 1.04989290e-01, 0.,
          1.50934951e-02, 6.50177244e-03, 0., 2.87024438e-01,
          1.26746356e-01, 9.31933969e-02, 0., 1.51391059e-01,
          1.20414011e-02, 0., 9.21377447e-03, 2.40847722e-01,
          1.28748983e-01, 1.24481551e-01, 2.85459943e-02, 6.08002488e-03,
          1.20765805e-01, 8.09733570e-02, 1.48666397e-01, 1.91636428e-01,
          1.14234760e-02, 5.54600358e-03, 0., 6.08002488e-03,
          1.00745587e-02, 5.69416061e-02, 1.43431351e-01, 3.13237637e-01,
          1.78544372e-01, 9.44933668e-02, 0., 3.30519564e-02,
          4.60889824e-02, 7.58982897e-02, 9.65344012e-02, 3.17866027e-01,
          1.09570131e-01, 0., 0., 0., 1.21443637e-01, 7.69559070e-02,
          1.28336132e-01, 2.09710747e-01, 2.17232898e-01, 1.07814610e-01,
          7.90613592e-02, 1.20235622e-01, 0., 7.23040896e-03,
          1.19223252e-01, 2.48346403e-01, 1.82258099e-01, 1.66565493e-01,
          1.63348570e-01, 0., 8.65162537e-03, 0., 0., 0. ]
      - [ 2.94757605e-01, 1.14149213e-01, 1.30178675e-01, 4.58726985e-03,
          8.35189670e-02, 0., 8.19313005e-02, 1.39317855e-01,
          2.10781023e-01, 1.22196957e-01, 1.20569594e-01, 1.77917443e-02,
          9.93060768e-02, 0., 7.51428073e-03, 6.87972456e-02,
          2.71801829e-01, 7.29603097e-02, 0., 6.48737932e-03,
          1.61768839e-01, 7.80274719e-02, 1.32737264e-01, 1.34501845e-01,
          2.21552089e-01, 3.18005569e-02, 1.81847736e-02, 3.95266041e-02,
          1.18668517e-02, 6.41404018e-02, 1.71271235e-01, 1.58117577e-01,
          2.39373043e-01, 7.12927729e-02, 4.48013172e-02, 4.58726985e-03,
          7.28850141e-02, 4.43493687e-02, 1.89085096e-01, 1.94561705e-01,
          2.21713021e-01, 8.18740949e-03, 4.84718047e-02, 0.,
          8.23529735e-02, 8.61689895e-02, 1.01619303e-01, 1.47210807e-01,
          2.36685142e-01, 1.24566063e-01, 1.22820452e-01, 1.13231085e-01,
          0., 0., 4.63394336e-02, 1.11667164e-01, 3.07328999e-01,
          1.31769031e-01, 1.40838280e-01, 5.82502317e-03, 0., 0.,
          4.60162945e-02, 1.11505061e-01 ]
      - [ 2.65506983e-01, 1.47703558e-01, 9.90061611e-02, 3.91521342e-02,
          3.94594558e-02, 2.38224547e-02, 3.62190567e-02, 1.60867572e-01,
          1.99351609e-01, 7.89737701e-02, 1.07925281e-01, 1.11865140e-01,
          1.03374207e-02, 7.13196537e-03, 1.35313189e-02, 2.02090651e-01,
          2.87206113e-01, 8.84357281e-03, 0., 0., 1.31883726e-01,
          4.64104638e-02, 9.82325077e-02, 0., 2.63117880e-01,
          4.20228839e-02, 0., 4.39428464e-02, 9.37600341e-03,
          6.08620569e-02, 1.09738536e-01, 1.99690863e-01, 2.32118338e-01,
          4.51462083e-02, 3.02204546e-02, 5.83573477e-03, 9.63455513e-02,
          1.29019514e-01, 1.22957110e-01, 2.07719907e-01, 2.60905027e-01,
          0., 0., 8.13668519e-02, 1.11320160e-01, 1.02715299e-01,
          7.46623278e-02, 1.24548286e-01, 1.72133535e-01, 7.32988939e-02,
          9.63991433e-02, 1.37461260e-01, 6.33035181e-03, 2.05139760e-02,
          7.52809923e-03, 1.64565906e-01, 2.78520495e-01, 1.34414315e-01,
          1.51351586e-01, 5.51544949e-02, 4.95948531e-02, 0.,
          3.18247713e-02, 1.99207470e-01 ]
      - [ 2.29568407e-01, 1.20088167e-01, 6.00705557e-02, 8.37009680e-03,
          1.28403772e-02, 0., 3.05239838e-02, 2.41845489e-01,
          1.38806239e-01, 7.75706023e-02, 1.22789174e-01, 1.17028445e-01,
          2.85528954e-02, 4.21873927e-02, 0., 2.53790826e-01,
          2.01506436e-01, 2.16615442e-02, 0., 6.59154402e-03,
          1.37948811e-01, 8.09506029e-02, 7.13305622e-02, 2.69995809e-01,
          7.64747709e-02, 3.11694876e-03, 3.07771992e-02, 0.,
          9.20148194e-03, 1.27175644e-01, 9.77984220e-02, 2.71648139e-01,
          1.55198783e-01, 5.16561754e-02, 0., 0., 0., 8.66818801e-02,
          1.37133896e-01, 2.46201560e-01, 2.29515031e-01, 0., 0., 0.,
          8.72494131e-02, 1.03893973e-01, 1.54537618e-01, 1.92240059e-01,
          1.66891798e-01, 1.02782600e-01, 6.31258786e-02, 1.12076268e-01,
          0., 0., 0., 2.18796030e-01, 2.40927741e-01, 1.33822143e-01,
          1.47381648e-01, 0., 0., 0., 0., 2.26542413e-01 ]
      - [ 2.62562752e-01, 1.30768821e-01, 1.15224697e-01, 2.60998216e-02,
          1.14563787e-02, 0., 5.56197762e-03, 1.63254991e-01,
          2.12915033e-01, 1.40834957e-01, 8.35744888e-02, 1.20328248e-01,
          1.38138169e-02, 8.66751932e-03, 3.78487967e-02, 1.94000438e-01,
          2.09245771e-01, 4.86669652e-02, 1.98259968e-02, 3.62795778e-02,
          1.21535175e-01, 8.51927772e-02, 1.29216403e-01, 2.22402543e-01,
          1.47396013e-01, 5.86177446e-02, 1.01800272e-02, 4.80187777e-03,
          9.02168173e-03, 1.30965576e-01, 1.31359652e-01, 2.36712515e-01,
          1.57822758e-01, 4.32124548e-02, 1.75934024e-02, 0.,
          5.50553538e-02, 1.35191113e-01, 1.21414572e-01, 2.55172998e-01,
          1.96021199e-01, 4.25457172e-02, 0., 0., 4.51282673e-02,
          1.35024413e-01, 1.18871324e-01, 2.14780569e-01, 1.78937286e-01,
          1.31313175e-01, 9.98850018e-02, 1.11446686e-01, 4.80187777e-03,
          0., 2.03228183e-02, 1.87271103e-01, 2.83311337e-01,
          7.78190121e-02, 1.11180753e-01, 0., 0., 0., 1.75769012e-02,
          2.00485960e-01 ]
      - [ 2.51415342e-01, 9.97732356e-02, 1.03913084e-01, 6.55885832e-03,
          1.22327637e-02, 0., 0., 1.91928610e-01, 1.81043521e-01,
          9.97069329e-02, 1.10006370e-01, 1.74266770e-01, 3.65299284e-02,
          0., 9.88703966e-03, 2.18392968e-01, 1.73616007e-01,
          8.30034819e-03, 4.53731529e-02, 7.49613438e-03, 1.32968336e-01,
          1.30168423e-01, 1.28621787e-01, 2.26418078e-01, 1.35350466e-01,
          3.70463915e-02, 4.24297452e-02, 0., 6.11571632e-02,
          8.03275853e-02, 8.10776725e-02, 2.81500489e-01, 1.08551860e-01,
          3.10149253e-03, 6.29771454e-03, 0., 7.37663405e-03,
          1.16843365e-01, 1.09708376e-01, 2.51874536e-01, 1.97554231e-01,
          2.75692716e-02, 6.29771454e-03, 3.48513871e-02, 1.21199943e-01,
          1.36825949e-01, 7.95936435e-02, 2.50221312e-01, 1.91140518e-01,
          1.07368849e-01, 1.60152331e-01, 7.60700107e-02, 9.03449487e-03,
          0., 6.00670837e-02, 1.83578223e-01, 2.49595851e-01,
          1.68568209e-01, 5.51306941e-02, 0., 8.38009454e-03, 0., 0.,
          1.93143919e-01 ]
      - [ 3.15208077e-01, 1.18393749e-01, 1.39921397e-01, 4.69430871e-02,
          1.03064654e-02, 9.70127713e-03, 7.46664256e-02, 1.75701186e-01,
          1.99215114e-01, 1.00982174e-01, 1.20420843e-01, 4.95453738e-02,
          1.59048643e-02, 5.12355603e-02, 5.85143408e-03, 6.86425194e-02,
          2.14502424e-01, 6.03757836e-02, 0., 0., 6.42872974e-02,
          1.00469381e-01, 1.10265784e-01, 1.82949066e-01, 2.04386681e-01,
          1.81928482e-02, 0., 0., 1.54778920e-02, 7.23427609e-02,
          1.38655037e-01, 2.52117246e-01, 1.95654750e-01, 0., 0., 0.,
          4.01753094e-03, 6.79949820e-02, 1.33754477e-01, 2.02793926e-01,
          2.56500602e-01, 7.55416928e-03, 0., 1.15246668e-01,
          1.00939937e-01, 1.02724768e-01, 9.84488651e-02, 1.71804681e-01,
          1.82489902e-01, 1.69776708e-01, 9.06273276e-02, 8.93529132e-02,
          1.18269943e-01, 5.09220883e-02, 2.13664174e-02, 1.64677233e-01,
          3.02713811e-01, 1.42241761e-01, 0., 0., 7.55416974e-03, 0.,
          1.01120025e-01, 1.67951569e-01 ]
      - [ 2.95570940e-01, 1.31898329e-01, 0., 0., 1.28277196e-02, 0.,
          5.74362883e-03, 1.71896860e-01, 2.09263518e-01, 1.05784170e-01,
          1.31845132e-01, 6.95975646e-02, 1.25712585e-02, 5.89692686e-03,
          4.88182604e-02, 1.56700179e-01, 2.85605341e-01, 2.74648070e-02,
          0., 4.92395237e-02, 8.71964693e-02, 1.00036338e-01,
          9.96400490e-02, 1.23287275e-01, 2.50644356e-01, 9.94825643e-03,
          1.32772774e-02, 8.01479444e-03, 1.05537986e-02, 1.16165325e-01,
          1.32691234e-01, 1.67742431e-01, 2.01801077e-01, 8.17854702e-03,
          0., 0., 3.94351268e-03, 4.57867607e-02, 1.58125401e-01,
          1.79293692e-01, 2.57139862e-01, 6.63217111e-03, 0.,
          1.32993430e-01, 1.18148230e-01, 8.28247592e-02, 8.76799226e-02,
          1.81743935e-01, 2.45711699e-01, 8.96214768e-02, 9.65091884e-02,
          9.49372798e-02, 1.12139948e-01, 4.46437411e-02, 0., 0.,
          3.50408882e-01, 1.18870869e-01, 6.79857135e-02, 0., 0., 0.,
          6.43177852e-02, 1.36877835e-01 ]
      - [ 3.08381945e-01, 1.42258316e-01, 1.08760491e-01, 0.,
          1.50580350e-02, 0., 7.02326000e-02, 1.77500606e-01,
          1.67762041e-01, 1.09141700e-01, 1.47218540e-01, 1.30542189e-01,
          3.70565951e-02, 0., 7.15746172e-03, 6.65362850e-02,
          2.35160053e-01, 8.52851104e-03, 9.85904038e-03, 7.15746172e-03,
          1.34735912e-01, 8.86312500e-02, 1.42760366e-01, 8.09771344e-02,
          2.57403523e-01, 0., 0., 4.78648301e-03, 1.91163402e-02,
          1.73760857e-02, 1.86143503e-01, 1.98750541e-01, 2.56926596e-01,
          4.52677626e-03, 0., 0., 6.07798854e-03, 1.09353729e-01,
          1.62171870e-01, 1.91396818e-01, 2.50852495e-01, 9.23537556e-03,
          0., 5.87894097e-02, 1.14006594e-01, 1.25146091e-01,
          1.37623027e-01, 0., 1.87904820e-01, 1.11907683e-01,
          1.40223473e-01, 1.12030454e-01, 4.02179360e-02, 0., 0.,
          6.80601150e-02, 3.24066788e-01, 1.20992519e-01, 0., 0.,
          4.78648301e-03, 7.42802816e-03, 7.41284341e-02, 1.88219100e-01 ]
      - [ 2.68407613e-01, 1.56770691e-01, 9.77372080e-02, 2.44118553e-02,
          1.28384363e-02, 7.35024177e-03, 8.57767239e-02, 1.65061623e-01,
          1.39712095e-01, 1.72395378e-01, 7.69917816e-02, 8.97587538e-02,
          5.85930981e-02, 1.22409686e-02, 2.22607553e-02, 1.45471901e-01,
          2.49004617e-01, 1.26747824e-02, 0., 0., 4.88936529e-02,
          1.45200357e-01, 1.19188137e-01, 7.08803982e-02, 2.64241397e-01,
          1.59464460e-02, 8.02802481e-03, 0., 1.59602705e-02,
          7.75882304e-02, 1.76781863e-01, 2.12625101e-01, 2.64037669e-01,
          3.25505459e-03, 0., 0., 0., 1.11129723e-01, 1.63119838e-01,
          1.94922626e-01, 2.60923713e-01, 1.09539023e-02, 0.,
          5.97858801e-02, 1.15818888e-01, 1.27765089e-01, 1.26519725e-01,
          6.30519018e-02, 2.12905750e-01, 1.00755036e-01, 7.90768713e-02,
          1.21416748e-01, 1.29749566e-01, 1.18051041e-02, 3.03571168e-02,
          6.90853149e-02, 3.21555763e-01, 1.23350792e-01, 0., 0., 0., 0.,
          0., 1.62068561e-01 ]
      - [ 3.13775301e-01, 1.17214203e-01, 1.44479379e-01, 4.75173863e-03,
          8.44991952e-03, 0., 6.35535829e-03, 1.53999612e-01,
          2.22317502e-01, 1.05684601e-01, 1.31493762e-01, 1.76609121e-02,
          1.19499899e-02, 0., 5.65080158e-03, 4.48334739e-02,
          2.54710734e-01, 3.55368592e-02, 5.65080158e-03, 7.10550696e-03,
          6.70224428e-02, 1.26849487e-01, 1.11911751e-01, 1.05217412e-01,
          2.45264634e-01, 2.36164816e-02, 3.24881412e-02, 4.75173863e-03,
          9.99807939e-03, 2.77369116e-02, 1.68079212e-01, 1.85578600e-01,
          2.31763735e-01, 0., 0., 0., 7.79211596e-02, 8.31923187e-02,
          1.57922149e-01, 2.18993977e-01, 2.35848933e-01, 1.38612967e-02,
          7.99144059e-03, 4.66428660e-02, 1.08480625e-01, 8.34604576e-02,
          1.73391253e-01, 1.09842561e-01, 3.04504693e-01, 1.01770520e-01,
          0., 1.18255876e-01, 1.17490932e-01, 0., 0., 0., 3.49974006e-01,
          1.22774616e-01, 0., 0., 0., 0., 0., 0. ]
      - [ 3.00311267e-01, 1.12941653e-01, 1.16907045e-01, 7.91223571e-02,
          1.39503377e-02, 0., 8.23121816e-02, 1.55213967e-01,
          2.03762442e-01, 1.28440917e-01, 8.28389823e-02, 9.77413207e-02,
          1.18968552e-02, 0., 2.63736099e-02, 0., 2.61429995e-01,
          2.28393637e-02, 1.82999987e-02, 3.00923511e-02, 1.19699597e-01,
          1.20920405e-01, 1.01392731e-01, 2.27523014e-01, 1.71084508e-01,
